{"learner":{"attributes":{"scikit_learn":"{\"_estimator_type\": \"regressor\"}"},"feature_names":["MedInc","HouseAge","AveRooms","AveBedrms","Population","AveOccup","Latitude","Longitude"],"feature_types":["float","float","float","float","float","float","float","float"],"gradient_booster":{"model":{"gbtree_model_param":{"num_parallel_tree":"1","num_trees":"100"},"iteration_indptr":[0,1,2,3,4,5,6,7,8,9,10,11,12,13,14,15,16,17,18,19,20,21,22,23,24,25,26,27,28,29,30,31,32,33,34,35,36,37,38,39,40,41,42,43,44,45,46,47,48,49,50,51,52,53,54,55,56,57,58,59,60,61,62,63,64,65,66,67,68,69,70,71,72,73,74,75,76,77,78,79,80,81,82,83,84,85,86,87,88,89,90,91,92,93,94,95,96,97,98,99,100],"tree_info":[0,0,0,0,0,0,0,0,0,0,0,0,0,0,0,0,0,0,0,0,0,0,0,0,0,0,0,0,0,0,0,0,0,0,0,0,0,0,0,0,0,0,0,0,0,0,0,0,0,0,0,0,0,0,0,0,0,0,0,0,0,0,0,0,0,0,0,0,0,0,0,0,0,0,0,0,0,0,0,0,0,0,0,0,0,0,0,0,0,0,0,0,0,0,0,0,0,0,0,0],"trees":[{"base_weights":[-0E0,-3.3442855E-1,1.2645831E0,-7.1430296E-1,1.4244449E-2,8.6234367E-1,2.157619E0,-4.4688094E-1,-9.070827E-1,7.355777E-1,-1.8299107E-1,1.4226876E0,5.489485E-1,1.6767777E0,2.5030062E0,-6.890089E-1,-1.5580231E-1,-1.1128953E0,-7.2240907E-1,2.2974917E-1,1.0551502E0,-3.5289648E-1,7.3479876E-2,8.915659E-1,1.6573733E0,2.7471423E-1,8.203716E-1,1.356432E0,2.1794662E0,2.2212963E0,2.6958966E0,-3.1193057E-1,-8.9679986E-1,4.9182737E-1,-3.048283E-1,-9.1657233E-1,-1.2136129E0,-2.964236E-1,-8.0933267E-1,-1.0067937E-1,4.011253E-1,1.2690439E0,8.365299E-2,-4.166805E-1,1.0308769E-1,3.4463754E-1,-1.1980687E-1,6.081922E-1,1.241237E0,2.4525952E0,1.4789112E0,5.507948E-1,1.22705996E-1,6.86084E-1,1.2393126E0,1.1195363E0,1.5163548E0,2.3653479E0,1.5402662E0,1.880573E0,2.6865156E0,3.1739494E-1,2.7272496E0,-1.09132715E-1,-2.3144096E-2,-1.8292099E-1,-1.2216162E-1,1.4073354E-1,-1.1637767E-2,1.3887693E-1,-6.374983E-2,-6.8671525E-2,-1.8030098E-1,-2.0646085E-1,-2.5762254E-1,-1.876766E-2,-1.2294668E-1,-1.0888393E-1,-1.6768208E-1,2.3346793E-2,-6.8395786E-2,3.487626E-2,1.5638067E-1,3.3296058E-1,1.7227541E-1,6.945385E-2,-1.0101388E-1,-4.2721756E-2,-9.979389E-2,1.375969E-1,-2.3987677E-2,4.1658822E-2,1.465861E-1,2.6802545E-2,-3.8669426E-2,-6.430196E-2,1.2231764E-1,2.4896549E-1,5.3874698E-2,4.6878812E-1,1.2140924E-1,2.017649E-1,3.1846333E-1,4.8973422E-2,1.2907265E-1,-1.7935362E-2,4.2447023E-2,9.8614104E-2,1.623562E-1,2.4174488E-1,2.3399716E-2,4.4779114E-5,2.0943336E-1,3.025475E-1,2.216528E-1,2.7926785E-1,4.370479E-1,-0E0,2.8739446E-1,2.882318E-1,3.727234E-1,4.8896503E-1,9.725779E-2,2.1671787E-1,-5.2678417E-2,3.1209677E-1,5.015815E-1],"categories":[],"categories_nodes":[],"categories_segments":[],"categories_sizes":[],"default_left":[0,0,0,0,0,0,0,0,0,0,0,0,0,0,0,0,0,0,0,0,0,0,0,0,0,0,0,0,0,0,0,0,0,0,0,0,0,0,0,0,0,0,0,0,0,0,0,0,0,0,0,0,0,0,0,0,0,0,0,0,0,0,0,0,0,0,0,0,0,0,0,0,0,0,0,0,0,0,0,0,0,0,0,0,0,0,0,0,0,0,0,0,0,0,0,0,0,0,0,0,0,0,0,0,0,0,0,0,0,0,0,0,0,0,0,0,0,0,0,0,0,0,0,0,0,0,0],"id":0,"left_children":[1,3,5,7,9,11,13,15,17,19,21,23,25,27,29,31,33,35,37,39,41,43,45,47,49,51,53,55,57,59,61,63,65,67,69,71,73,75,77,79,81,83,85,87,89,91,93,95,97,99,101,103,105,107,109,111,113,115,117,119,121,123,125,-1,-1,-1,-1,-1,-1,-1,-1,-1,-1,-1,-1,-1,-1,-1,-1,-1,-1,-1,-1,-1,-1,-1,-1,-1,-1,-1,-1,-1,-1,-1,-1,-1,-1,-1,-1,-1,-1,-1,-1,-1,-1,-1,-1,-1,-1,-1,-1,-1,-1,-1,-1,-1,-1,-1,-1,-1,-1,-1,-1,-1,-1,-1,-1],"loss_changes":[6.98377E3,1.7300599E3,1.2381064E3,3.214358E2,9.691488E2,4.1710718E2,1.732749E2,1.843086E2,1.367063E2,2.3578821E2,2.3315678E2,1.0435193E2,1.1328491E2,6.904089E1,2.74458E1,1.1136261E2,1.1506261E2,3.2272217E1,7.037897E1,3.2293335E1,1.8554755E2,9.373657E1,1.1179048E2,2.487413E1,7.964026E1,3.1706665E1,4.1832153E1,8.259613E0,1.644458E1,3.5350708E1,2.5408936E1,2.6945312E1,2.200824E1,3.5623623E1,4.901345E1,2.4019623E1,1.5216064E1,2.3741743E1,3.7564453E1,1.2447214E1,3.560912E1,1.304237E2,3.1386272E1,6.816135E1,6.1351936E1,4.6760307E1,3.1248333E1,9.849308E0,1.374939E1,2.3255737E1,4.686487E1,1.1725243E1,1.2289671E1,1.647937E1,1.8870483E1,4.3216553E0,4.7129517E0,9.1864014E-1,3.5381165E0,3.9511719E0,6.741333E-1,3.6755536E0,9.866211E0,0E0,0E0,0E0,0E0,0E0,0E0,0E0,0E0,0E0,0E0,0E0,0E0,0E0,0E0,0E0,0E0,0E0,0E0,0E0,0E0,0E0,0E0,0E0,0E0,0E0,0E0,0E0,0E0,0E0,0E0,0E0,0E0,0E0,0E0,0E0,0E0,0E0,0E0,0E0,0E0,0E0,0E0,0E0,0E0,0E0,0E0,0E0,0E0,0E0,0E0,0E0,0E0,0E0,0E0,0E0,0E0,0E0,0E0,0E0,0E0,0E0,0E0,0E0,0E0],"parents":[2147483647,0,0,1,1,2,2,3,3,4,4,5,5,6,6,7,7,8,8,9,9,10,10,11,11,12,12,13,13,14,14,15,15,16,16,17,17,18,18,19,19,20,20,21,21,22,22,23,23,24,24,25,25,26,26,27,27,28,28,29,29,30,30,31,31,32,32,33,33,34,34,35,35,36,36,37,37,38,38,39,39,40,40,41,41,42,42,43,43,44,44,45,45,46,46,47,47,48,48,49,49,50,50,51,51,52,52,53,53,54,54,55,55,56,56,57,57,58,58,59,59,60,60,61,61,62,62],"right_children":[2,4,6,8,10,12,14,16,18,20,22,24,26,28,30,32,34,36,38,40,42,44,46,48,50,52,54,56,58,60,62,64,66,68,70,72,74,76,78,80,82,84,86,88,90,92,94,96,98,100,102,104,106,108,110,112,114,116,118,120,122,124,126,-1,-1,-1,-1,-1,-1,-1,-1,-1,-1,-1,-1,-1,-1,-1,-1,-1,-1,-1,-1,-1,-1,-1,-1,-1,-1,-1,-1,-1,-1,-1,-1,-1,-1,-1,-1,-1,-1,-1,-1,-1,-1,-1,-1,-1,-1,-1,-1,-1,-1,-1,-1,-1,-1,-1,-1,-1,-1,-1,-1,-1,-1,-1,-1],"split_conditions":[5.0736E0,3.0714E0,6.828E0,4.314229E0,2.3433242E0,2.669708E0,7.8287E0,2.2328E0,2.3687E0,2.5E1,4.125E0,2.2E1,5.7214E0,2.7E1,8.7471E0,3.4459016E0,2.0333333E0,3.529E1,2.2950819E0,3.5268E0,3.782E1,4.4E1,2.8312712E0,5.7214E0,2.144781E0,2.9625669E0,2.8E1,1.01002E0,3.758E1,2.9E1,4.805646E0,3.405E1,1.962E0,-1.1826E2,-1.2236E2,-1.1831E2,-1.1985E2,3.792E1,3.451E1,4.5846868E0,1.9E1,1.9598699E0,-1.2203E2,5.1144576E0,-1.2239E2,4E1,-1.2145E2,3.16E2,3.796E1,3.79E1,5.5942E0,2.3E1,1.7E1,6.2924E0,3.3522012E0,2.0858505E0,-1.1784E2,9.453125E-1,3.766E1,1.0094192E0,3.855E1,3.6E1,1.38E2,-1.09132715E-1,-2.3144096E-2,-1.8292099E-1,-1.2216162E-1,1.4073354E-1,-1.1637767E-2,1.3887693E-1,-6.374983E-2,-6.8671525E-2,-1.8030098E-1,-2.0646085E-1,-2.5762254E-1,-1.876766E-2,-1.2294668E-1,-1.0888393E-1,-1.6768208E-1,2.3346793E-2,-6.8395786E-2,3.487626E-2,1.5638067E-1,3.3296058E-1,1.7227541E-1,6.945385E-2,-1.0101388E-1,-4.2721756E-2,-9.979389E-2,1.375969E-1,-2.3987677E-2,4.1658822E-2,1.465861E-1,2.6802545E-2,-3.8669426E-2,-6.430196E-2,1.2231764E-1,2.4896549E-1,5.3874698E-2,4.6878812E-1,1.2140924E-1,2.017649E-1,3.1846333E-1,4.8973422E-2,1.2907265E-1,-1.7935362E-2,4.2447023E-2,9.8614104E-2,1.623562E-1,2.4174488E-1,2.3399716E-2,4.4779114E-5,2.0943336E-1,3.025475E-1,2.216528E-1,2.7926785E-1,4.370479E-1,-0E0,2.8739446E-1,2.882318E-1,3.727234E-1,4.8896503E-1,9.725779E-2,2.1671787E-1,-5.2678417E-2,3.1209677E-1,5.015815E-1],"split_indices":[0,0,0,2,5,5,0,0,0,1,0,1,0,1,0,2,5,6,5,0,6,1,5,0,5,5,1,3,6,1,2,6,0,7,7,7,7,6,6,2,1,5,7,2,7,1,7,4,6,6,0,1,1,0,5,5,7,3,6,3,6,1,4,0,0,0,0,0,0,0,0,0,0,0,0,0,0,0,0,0,0,0,0,0,0,0,0,0,0,0,0,0,0,0,0,0,0,0,0,0,0,0,0,0,0,0,0,0,0,0,0,0,0,0,0,0,0,0,0,0,0,0,0,0,0,0,0],"split_type":[0,0,0,0,0,0,0,0,0,0,0,0,0,0,0,0,0,0,0,0,0,0,0,0,0,0,0,0,0,0,0,0,0,0,0,0,0,0,0,0,0,0,0,0,0,0,0,0,0,0,0,0,0,0,0,0,0,0,0,0,0,0,0,0,0,0,0,0,0,0,0,0,0,0,0,0,0,0,0,0,0,0,0,0,0,0,0,0,0,0,0,0,0,0,0,0,0,0,0,0,0,0,0,0,0,0,0,0,0,0,0,0,0,0,0,0,0,0,0,0,0,0,0,0,0,0,0],"sum_hessian":[1.6512E4,1.3059E4,3.453E3,6.25E3,6.809E3,2.382E3,1.071E3,2.62E3,3.63E3,1.462E3,5.347E3,8.53E2,1.529E3,4.5E2,6.21E2,1.429E3,1.191E3,1.714E3,1.916E3,5.67E2,8.95E2,3.217E3,2.13E3,2.63E2,5.9E2,7.62E2,7.67E2,2.77E2,1.73E2,2.57E2,3.64E2,5.09E2,9.2E2,2.22E2,9.69E2,5.85E2,1.129E3,3.26E2,1.59E3,1.93E2,3.74E2,7.33E2,1.62E2,2.823E3,3.94E2,8.87E2,1.243E3,1.47E2,1.16E2,1.06E2,4.84E2,2.69E2,4.93E2,5.83E2,1.84E2,1.15E2,1.62E2,1.32E2,4.1E1,1.51E2,1.06E2,5E0,3.59E2,1.96E2,3.13E2,6.07E2,3.13E2,1.47E2,7.5E1,4E1,9.29E2,7.6E1,5.09E2,8.39E2,2.9E2,2.18E2,1.08E2,5.73E2,1.017E3,1.05E2,8.8E1,2.59E2,1.15E2,2.61E2,4.72E2,1.11E2,5.1E1,1.205E3,1.618E3,1.04E2,2.9E2,7.13E2,1.74E2,3.21E2,9.22E2,9E0,1.38E2,1.01E2,1.5E1,9.8E1,8E0,2.12E2,2.72E2,1E2,1.69E2,1.64E2,3.29E2,3.51E2,2.32E2,1.69E2,1.5E1,4E0,1.11E2,1.03E2,5.9E1,9E0,1.23E2,1E0,4E1,6.1E1,9E1,1.05E2,1E0,2E0,3E0,1.6E1,3.43E2],"tree_param":{"num_deleted":"0","num_feature":"8","num_nodes":"127","size_leaf_vector":"1"}},{"base_weights":[2.964354E-4,-2.8058058E-1,1.0148567E0,-5.619618E-1,3.3949245E-2,6.4876705E-1,1.6845552E0,-9.054962E-2,-6.454572E-1,6.007678E-1,-1.5737599E-1,1.1995059E0,4.3505904E-1,1.3262877E0,2.0528624E0,8.172732E-2,-6.4418036E-1,-4.6024108E-1,-8.2080257E-1,7.227291E-1,-3.1849205E-1,-2.8545177E-1,1.9385211E-2,7.114771E-1,1.4143767E0,2.5760677E-1,6.7045623E-1,1.0570085E0,1.7721889E0,1.7619977E0,2.1970854E0,4.086306E-1,-3.3963716E-1,-4.3195093E-1,-7.8842926E-1,-2.8363726E-1,-8.090081E-1,-5.5575544E-1,-9.876977E-1,1.347352E-1,9.351597E-1,-4.705731E-2,-4.7103432E-1,-3.2870683E-1,2.0921661E-1,2.0628406E-1,-1.4089788E-1,-1.5571864E-1,7.8454787E-1,2.1188664E0,1.255778E0,4.0778595E-1,4.3756656E-2,5.4947597E-1,1.1047249E0,1.4248965E0,9.630662E-1,1.8987093E0,1.2871491E0,1.4963865E0,2.1172297E0,2.4663556E-1,2.2196841E0,1.5092647E-1,2.587392E-2,-9.66076E-2,1.009765E-2,-1.0658806E-2,-1.24474175E-1,-1.2211409E-1,-1.7172587E-1,-4.169809E-3,-9.2403084E-2,-1.3658047E-1,-2.0586361E-1,-2.8136462E-2,-1.595069E-1,-1.5884663E-1,-2.1103327E-1,6.955677E-2,-1.622607E-2,2.560976E-1,1.252995E-1,2.6608158E-2,-1.3833174E-1,-9.326509E-2,4.210109E-2,-4.85933E-2,-1.0306564E-1,1.1930679E-1,-7.5067244E-3,2.1731714E-2,1.2631108E-1,-1.3328886E-2,-7.719335E-2,-1.4621547E-1,-0E0,1.00303926E-1,1.9081037E-1,1.3916948E-1,3.9101762E-1,2.3748064E-1,2.8409818E-3,8.7803684E-2,3.1436745E-3,2.6434112E-1,4.627673E-3,1.2203117E-1,6.854577E-2,2.14606E-1,4.1025835E-3,4.336917E-2,2.8063628E-1,2.4417308E-1,1.6203454E-1,3.890078E-1,3.0668253E-1,2.4396247E-1,-5.373382E-3,1.6431807E-1,2.862489E-1,1.295274E-1,3.9365742E-1,-2.07013E-2,2.4172387E-1,4.0538228E-1,1.8287198E-1],"categories":[],"categories_nodes":[],"categories_segments":[],"categories_sizes":[],"default_left":[0,0,0,0,0,0,0,0,0,0,0,0,0,0,0,0,0,0,0,0,0,0,0,0,0,0,0,0,0,0,0,0,0,0,0,0,0,0,0,0,0,0,0,0,0,0,0,0,0,0,0,0,0,0,0,0,0,0,0,0,0,0,0,0,0,0,0,0,0,0,0,0,0,0,0,0,0,0,0,0,0,0,0,0,0,0,0,0,0,0,0,0,0,0,0,0,0,0,0,0,0,0,0,0,0,0,0,0,0,0,0,0,0,0,0,0,0,0,0,0,0,0,0,0,0,0,0],"id":1,"left_children":[1,3,5,7,9,11,13,15,17,19,21,23,25,27,29,31,33,35,37,39,41,43,45,47,49,51,53,55,57,59,61,63,65,67,69,71,73,75,77,79,81,83,85,87,89,91,93,95,97,99,101,103,105,107,109,111,113,115,117,119,121,123,125,-1,-1,-1,-1,-1,-1,-1,-1,-1,-1,-1,-1,-1,-1,-1,-1,-1,-1,-1,-1,-1,-1,-1,-1,-1,-1,-1,-1,-1,-1,-1,-1,-1,-1,-1,-1,-1,-1,-1,-1,-1,-1,-1,-1,-1,-1,-1,-1,-1,-1,-1,-1,-1,-1,-1,-1,-1,-1,-1,-1,-1,-1,-1,-1],"loss_changes":[4.7060728E3,1.144797E3,8.7619604E2,2.6838623E2,6.6249414E2,2.7167053E2,1.6357593E2,9.8370445E1,1.8756055E2,1.7317639E2,1.03467155E2,6.626764E1,6.931253E1,7.48291E1,2.1691162E1,1.0822588E2,6.779419E0,1.7328125E2,1.3068604E2,1.695976E2,7.2730885E0,5.677153E1,5.7495872E1,1.2985077E1,4.676471E1,3.0479874E1,3.6580505E1,1.2027985E1,1.1744873E1,1.6151611E1,1.681311E1,4.951084E1,2.6453407E1,9.380011E0,1.5338364E0,1.1051752E2,1.5711975E1,1.4945535E2,3.4308716E1,2.041995E1,1.14966675E2,9.593742E0,3.736683E0,3.495749E1,2.4220474E1,3.7212677E1,1.9600836E1,1.410465E0,1.0423958E1,2.005066E0,2.470996E1,1.6624878E1,9.61591E0,1.1372559E1,1.2935669E1,1.0815796E1,6.817932E0,5.4888916E0,4.6724625E0,4.11145E0,4.6499634E0,2.8300738E0,6.1204834E0,0E0,0E0,0E0,0E0,0E0,0E0,0E0,0E0,0E0,0E0,0E0,0E0,0E0,0E0,0E0,0E0,0E0,0E0,0E0,0E0,0E0,0E0,0E0,0E0,0E0,0E0,0E0,0E0,0E0,0E0,0E0,0E0,0E0,0E0,0E0,0E0,0E0,0E0,0E0,0E0,0E0,0E0,0E0,0E0,0E0,0E0,0E0,0E0,0E0,0E0,0E0,0E0,0E0,0E0,0E0,0E0,0E0,0E0,0E0,0E0,0E0,0E0,0E0,0E0],"parents":[2147483647,0,0,1,1,2,2,3,3,4,4,5,5,6,6,7,7,8,8,9,9,10,10,11,11,12,12,13,13,14,14,15,15,16,16,17,17,18,18,19,19,20,20,21,21,22,22,23,23,24,24,25,25,26,26,27,27,28,28,29,29,30,30,31,31,32,32,33,33,34,34,35,35,36,36,37,37,38,38,39,39,40,40,41,41,42,42,43,43,44,44,45,45,46,46,47,47,48,48,49,49,50,50,51,51,52,52,53,53,54,54,55,55,56,56,57,57,58,58,59,59,60,60,61,61,62,62],"right_children":[2,4,6,8,10,12,14,16,18,20,22,24,26,28,30,32,34,36,38,40,42,44,46,48,50,52,54,56,58,60,62,64,66,68,70,72,74,76,78,80,82,84,86,88,90,92,94,96,98,100,102,104,106,108,110,112,114,116,118,120,122,124,126,-1,-1,-1,-1,-1,-1,-1,-1,-1,-1,-1,-1,-1,-1,-1,-1,-1,-1,-1,-1,-1,-1,-1,-1,-1,-1,-1,-1,-1,-1,-1,-1,-1,-1,-1,-1,-1,-1,-1,-1,-1,-1,-1,-1,-1,-1,-1,-1,-1,-1,-1,-1,-1,-1,-1,-1,-1,-1,-1,-1,-1,-1,-1,-1],"split_conditions":[5.0253E0,3.1875E0,6.5891E0,2.1589403E0,2.4149444E0,2.5770235E0,7.8287E0,3.793E1,3.451E1,3.8E1,4.125E0,2.2E1,5.7214E0,2.7E1,2.1E1,-1.1824E2,3.854E1,-1.178E2,-1.2162E2,2E1,-1.2227E2,4.7E1,2.9310346E0,3.54E2,2.0605633E0,3.125E0,3.3E1,2.6575E0,3.758E1,9.281E0,4.805646E0,3.451E1,2.9E1,-1.2226E2,3.894E1,3.4362416E0,-1.1667E2,3.792E1,-1.1985E2,-1.1829E2,2.0055096E0,3.876E1,1.8793522E1,3.794E1,-1.2236E2,4.3E1,-1.1768E2,4.1E1,5.6345E0,9.3010753E-1,3.8E1,3.792E1,1.68E2,3.1413794E0,3.3087718E0,9.5679015E-1,-1.2199E2,2.5895522E0,-1.2135E2,9.683908E-1,8.5714287E-1,8.917526E-1,3.799E1,1.5092647E-1,2.587392E-2,-9.66076E-2,1.009765E-2,-1.0658806E-2,-1.24474175E-1,-1.2211409E-1,-1.7172587E-1,-4.169809E-3,-9.2403084E-2,-1.3658047E-1,-2.0586361E-1,-2.8136462E-2,-1.595069E-1,-1.5884663E-1,-2.1103327E-1,6.955677E-2,-1.622607E-2,2.560976E-1,1.252995E-1,2.6608158E-2,-1.3833174E-1,-9.326509E-2,4.210109E-2,-4.85933E-2,-1.0306564E-1,1.1930679E-1,-7.5067244E-3,2.1731714E-2,1.2631108E-1,-1.3328886E-2,-7.719335E-2,-1.4621547E-1,-0E0,1.00303926E-1,1.9081037E-1,1.3916948E-1,3.9101762E-1,2.3748064E-1,2.8409818E-3,8.7803684E-2,3.1436745E-3,2.6434112E-1,4.627673E-3,1.2203117E-1,6.854577E-2,2.14606E-1,4.1025835E-3,4.336917E-2,2.8063628E-1,2.4417308E-1,1.6203454E-1,3.890078E-1,3.0668253E-1,2.4396247E-1,-5.373382E-3,1.6431807E-1,2.862489E-1,1.295274E-1,3.9365742E-1,-2.07013E-2,2.4172387E-1,4.0538228E-1,1.8287198E-1],"split_indices":[0,0,0,5,5,5,0,6,6,6,0,1,0,1,1,7,6,7,7,1,7,1,5,4,5,5,1,5,6,0,2,6,1,7,6,5,7,6,7,7,5,6,2,6,7,1,7,4,0,3,6,6,4,5,5,3,7,5,7,3,3,3,6,0,0,0,0,0,0,0,0,0,0,0,0,0,0,0,0,0,0,0,0,0,0,0,0,0,0,0,0,0,0,0,0,0,0,0,0,0,0,0,0,0,0,0,0,0,0,0,0,0,0,0,0,0,0,0,0,0,0,0,0,0,0,0,0],"split_type":[0,0,0,0,0,0,0,0,0,0,0,0,0,0,0,0,0,0,0,0,0,0,0,0,0,0,0,0,0,0,0,0,0,0,0,0,0,0,0,0,0,0,0,0,0,0,0,0,0,0,0,0,0,0,0,0,0,0,0,0,0,0,0,0,0,0,0,0,0,0,0,0,0,0,0,0,0,0,0,0,0,0,0,0,0,0,0,0,0,0,0,0,0,0,0,0,0,0,0,0,0,0,0,0,0,0,0,0,0,0,0,0,0,0,0,0,0,0,0,0,0,0,0,0,0,0,0],"sum_hessian":[1.6512E4,1.2932E4,3.58E3,6.826E3,6.106E3,2.316E3,1.264E3,1.028E3,5.798E3,1.541E3,4.565E3,6.46E2,1.67E3,6.43E2,6.21E2,7.84E2,2.44E2,2.822E3,2.976E3,1.361E3,1.8E2,2.648E3,1.917E3,1.99E2,4.47E2,9.54E2,7.16E2,4.03E2,2.4E2,2.1E2,4.11E2,4.42E2,3.42E2,1.01E2,1.43E2,1.875E3,9.47E2,1.152E3,1.824E3,3.62E2,9.99E2,6.6E1,1.14E2,2.436E3,2.12E2,8.86E2,1.031E3,1.5E1,1.84E2,8E1,3.67E2,5.59E2,3.95E2,5.62E2,1.54E2,7.9E1,3.24E2,1.88E2,5.2E1,1.23E2,8.7E1,5E0,4.06E2,1.69E2,2.73E2,2.3E2,1.12E2,4.2E1,5.9E1,8.7E1,5.6E1,8.73E2,1.002E3,8.14E2,1.33E2,5.17E2,6.35E2,1.127E3,6.97E2,1.72E2,1.9E2,3.35E2,6.64E2,5.2E1,1.4E1,1.08E2,6E0,1.949E3,4.87E2,7.6E1,1.36E2,7.55E2,1.31E2,8.36E2,1.95E2,2E0,1.3E1,1.01E2,8.3E1,3E0,7.7E1,3.51E2,1.6E1,4.66E2,9.3E1,4E0,3.91E2,3.23E2,2.39E2,1.43E2,1.1E1,8E0,7.1E1,4.6E1,2.78E2,8.1E1,1.07E2,5E1,2E0,1.7E1,1.06E2,4E0,8.3E1,4E0,1E0,3.99E2,7E0],"tree_param":{"num_deleted":"0","num_feature":"8","num_nodes":"127","size_leaf_vector":"1"}},{"base_weights":[4.8354993E-4,-1.9821978E-1,9.7098356E-1,-4.1899335E-1,1.1425086E-1,7.497526E-1,1.6538746E0,-7.138777E-2,-5.1237816E-1,6.4908165E-1,-3.997973E-2,1.1338632E0,5.5488616E-1,1.7656802E0,1.3012601E0,8.139777E-2,-5.3942746E-1,-6.58815E-1,-3.7213102E-1,1.8727334E-1,8.360447E-1,1.5308833E-1,-1.5357225E-1,7.6894784E-1,1.2823527E0,3.8248682E-1,8.241773E-1,1.9302577E-1,1.7862159E0,-1.9393729E-1,1.3595814E0,1.2369366E0,-3.068764E-3,-4.625724E-1,-8.734833E-1,-2.8294063E-1,-7.508548E-1,-2.2741055E-1,-5.336636E-1,4.5485698E-2,3.8196105E-1,9.9412364E-1,9.2811435E-2,2.648557E-1,-2.5280786E-1,-2.551138E-1,2.3460321E-2,4.0409584E-2,8.3557045E-1,1.6769172E0,1.1411195E0,5.522485E-1,2.3645328E-1,7.121781E-1,1.2136244E0,2.1671414E-1,-3.3102363E-2,1.8057706E0,1.0940191E-1,-6.116291E-1,8.04299E-2,1.099352E0,1.7767469E0,-7.833806E-2,2.438523E-1,1.844023E-2,-1.0848753E-1,-4.4661984E-2,-1.0458457E-1,-2.1093403E-4,-1.5940343E-1,-4.6976726E-3,-7.099866E-2,-1.1012129E-1,-1.551871E-1,6.481832E-2,-4.784941E-2,-1.00831665E-1,-7.487064E-3,-9.288433E-3,5.4960568E-2,1.0398968E-1,-0E0,2.631798E-1,1.4403707E-1,-3.3272125E-2,7.798116E-2,6.607697E-2,-4.0722724E-2,3.0959124E-2,-7.213616E-2,4.107122E-2,-5.2808695E-2,-3.073651E-2,2.2676725E-2,3.560383E-2,-6.735948E-2,1.0980003E-1,1.9840527E-1,3.1141874E-1,-3.2161525E-4,1.3735513E-1,2.3673421E-1,8.7573424E-2,1.842273E-1,5.248038E-2,-3.552635E-2,1.8007073E-1,1.1812203E-1,2.3325866E-1,4.1999824E-2,1.9963467E-2,-7.3890164E-2,2.9406458E-1,3.441921E-1,-0E0,-1.3325217E-1,2.7849922E-1,1.7004515E-1,8.5380614E-2,3.2762897E-1],"categories":[],"categories_nodes":[],"categories_segments":[],"categories_sizes":[],"default_left":[0,0,0,0,0,0,0,0,0,0,0,0,0,0,0,0,0,0,0,0,0,0,0,0,0,0,0,0,0,0,0,0,0,0,0,0,0,0,0,0,0,0,0,0,0,0,0,0,0,0,0,0,0,0,0,0,0,0,0,0,0,0,0,0,0,0,0,0,0,0,0,0,0,0,0,0,0,0,0,0,0,0,0,0,0,0,0,0,0,0,0,0,0,0,0,0,0,0,0,0,0,0,0,0,0,0,0,0,0,0,0,0,0,0,0,0,0,0,0,0,0],"id":2,"left_children":[1,3,5,7,9,11,13,15,17,19,21,23,25,27,29,31,33,35,37,39,41,43,45,47,49,51,53,55,57,59,61,63,65,67,69,71,73,75,77,79,81,83,85,87,89,91,93,95,97,99,101,103,105,107,109,-1,111,113,-1,115,-1,117,119,-1,-1,-1,-1,-1,-1,-1,-1,-1,-1,-1,-1,-1,-1,-1,-1,-1,-1,-1,-1,-1,-1,-1,-1,-1,-1,-1,-1,-1,-1,-1,-1,-1,-1,-1,-1,-1,-1,-1,-1,-1,-1,-1,-1,-1,-1,-1,-1,-1,-1,-1,-1,-1,-1,-1,-1,-1,-1],"loss_changes":[3.184779E3,9.457141E2,4.2220215E2,2.605055E2,4.6834256E2,1.5770789E2,2.41604E1,1.21967926E2,1.2944604E2,1.09216736E2,9.66188E1,3.7111633E1,6.475943E1,1.5719849E1,1.5350433E1,1.2576526E2,9.972252E0,1.0651697E2,7.5289185E1,9.978153E0,1.05704346E2,7.403534E1,4.997074E1,9.778305E0,2.5634155E1,2.0969765E1,2.2564178E1,2.2246542E0,1.0085205E1,2.0656314E0,1.5123108E1,1.679538E1,7.501864E1,8.109543E0,1.0749054E-1,1.6949642E1,3.6661987E1,3.6816765E1,1.706491E1,5.4663777E0,1.1435236E1,6.626587E1,1.5068889E1,6.2744873E1,2.1814016E1,3.1055298E1,1.9860447E1,1.1962893E0,1.0230515E1,9.945648E0,2.2273254E1,1.1751305E1,1.0812733E1,6.155182E0,7.9965515E0,0E0,5.0805146E-1,5.001587E0,0E0,2.5267088E-1,0E0,5.2170334E0,1.0449982E0,0E0,0E0,0E0,0E0,0E0,0E0,0E0,0E0,0E0,0E0,0E0,0E0,0E0,0E0,0E0,0E0,0E0,0E0,0E0,0E0,0E0,0E0,0E0,0E0,0E0,0E0,0E0,0E0,0E0,0E0,0E0,0E0,0E0,0E0,0E0,0E0,0E0,0E0,0E0,0E0,0E0,0E0,0E0,0E0,0E0,0E0,0E0,0E0,0E0,0E0,0E0,0E0,0E0,0E0,0E0,0E0,0E0,0E0],"parents":[2147483647,0,0,1,1,2,2,3,3,4,4,5,5,6,6,7,7,8,8,9,9,10,10,11,11,12,12,13,13,14,14,15,15,16,16,17,17,18,18,19,19,20,20,21,21,22,22,23,23,24,24,25,25,26,26,27,27,28,28,29,29,30,30,31,31,32,32,33,33,34,34,35,35,36,36,37,37,38,38,39,39,40,40,41,41,42,42,43,43,44,44,45,45,46,46,47,47,48,48,49,49,50,50,51,51,52,52,53,53,54,54,56,56,57,57,59,59,61,61,62,62],"right_children":[2,4,6,8,10,12,14,16,18,20,22,24,26,28,30,32,34,36,38,40,42,44,46,48,50,52,54,56,58,60,62,64,66,68,70,72,74,76,78,80,82,84,86,88,90,92,94,96,98,100,102,104,106,108,110,-1,112,114,-1,116,-1,118,120,-1,-1,-1,-1,-1,-1,-1,-1,-1,-1,-1,-1,-1,-1,-1,-1,-1,-1,-1,-1,-1,-1,-1,-1,-1,-1,-1,-1,-1,-1,-1,-1,-1,-1,-1,-1,-1,-1,-1,-1,-1,-1,-1,-1,-1,-1,-1,-1,-1,-1,-1,-1,-1,-1,-1,-1,-1,-1],"split_conditions":[5.3681E0,3.5E0,7.6659E0,2.2950819E0,2.395105E0,2.6575E0,-1.1799E2,3.792E1,2.5125E0,2E1,2.805492E0,2.2E1,6.2924E0,4.805646E0,1.38E2,-1.2231E2,3.941E1,3.6454353E0,5E0,1.6E1,3.782E1,3.794E1,4.5417E0,3.69E2,2.2600896E0,3.0374532E0,2.8E1,3.39E1,3.855E1,8.986207E0,9.281E0,2.2E1,-1.1714E2,-1.2205E2,2.6544502E0,3.1328905E0,3.468E1,-1.2236E2,5E1,4.5878E0,-1.18E2,1.9598699E0,4.125E0,-1.1768E2,-1.2239E2,-1.2239E2,1.8E1,8.442105E0,1.0707692E0,3.794E1,5.826E0,3.7E1,3.776E1,-1.2195E2,-1.1792E2,2.1671414E-1,3.2240436E0,8.4411E0,1.0940191E-1,6.010101E0,8.04299E-2,2.6767676E0,4E0,-7.833806E-2,2.438523E-1,1.844023E-2,-1.0848753E-1,-4.4661984E-2,-1.0458457E-1,-2.1093403E-4,-1.5940343E-1,-4.6976726E-3,-7.099866E-2,-1.1012129E-1,-1.551871E-1,6.481832E-2,-4.784941E-2,-1.00831665E-1,-7.487064E-3,-9.288433E-3,5.4960568E-2,1.0398968E-1,-0E0,2.631798E-1,1.4403707E-1,-3.3272125E-2,7.798116E-2,6.607697E-2,-4.0722724E-2,3.0959124E-2,-7.213616E-2,4.107122E-2,-5.2808695E-2,-3.073651E-2,2.2676725E-2,3.560383E-2,-6.735948E-2,1.0980003E-1,1.9840527E-1,3.1141874E-1,-3.2161525E-4,1.3735513E-1,2.3673421E-1,8.7573424E-2,1.842273E-1,5.248038E-2,-3.552635E-2,1.8007073E-1,1.1812203E-1,2.3325866E-1,4.1999824E-2,1.9963467E-2,-7.3890164E-2,2.9406458E-1,3.441921E-1,-0E0,-1.3325217E-1,2.7849922E-1,1.7004515E-1,8.5380614E-2,3.2762897E-1],"split_indices":[0,0,0,5,5,5,7,6,0,1,5,1,0,2,4,7,6,2,2,1,6,6,0,4,5,5,1,6,6,2,0,1,7,7,2,5,6,7,1,0,7,5,0,7,7,7,1,2,3,6,0,1,6,7,7,0,5,0,0,2,0,5,1,0,0,0,0,0,0,0,0,0,0,0,0,0,0,0,0,0,0,0,0,0,0,0,0,0,0,0,0,0,0,0,0,0,0,0,0,0,0,0,0,0,0,0,0,0,0,0,0,0,0,0,0,0,0,0,0,0,0],"split_type":[0,0,0,0,0,0,0,0,0,0,0,0,0,0,0,0,0,0,0,0,0,0,0,0,0,0,0,0,0,0,0,0,0,0,0,0,0,0,0,0,0,0,0,0,0,0,0,0,0,0,0,0,0,0,0,0,0,0,0,0,0,0,0,0,0,0,0,0,0,0,0,0,0,0,0,0,0,0,0,0,0,0,0,0,0,0,0,0,0,0,0,0,0,0,0,0,0,0,0,0,0,0,0,0,0,0,0,0,0,0,0,0,0,0,0,0,0,0,0,0,0],"sum_hessian":[1.6512E4,1.3706E4,2.806E3,8.032E3,5.674E3,2.121E3,6.85E2,1.702E3,6.33E3,1.27E3,4.404E3,7.12E2,1.409E3,5.17E2,1.68E2,1.283E3,4.19E2,3.094E3,3.236E3,3.67E2,9.03E2,1.63E3,2.774E3,2.08E2,5.04E2,8.61E2,5.48E2,7E0,5.1E2,6E0,1.62E2,8.7E1,1.196E3,3.43E2,7.6E1,6.1E2,2.484E3,1.709E3,1.527E3,2.14E2,1.53E2,7.44E2,1.59E2,1.279E3,3.51E2,1.764E3,1.01E3,1.8E1,1.9E2,1.3E2,3.74E2,3.96E2,4.65E2,4.28E2,1.2E2,1E0,6E0,5.01E2,9E0,4E0,2E0,1.02E2,6E1,5E0,8.2E1,1.017E3,1.79E2,1.21E2,2.22E2,1E0,7.5E1,1.83E2,4.27E2,1.061E3,1.423E3,1E2,1.609E3,1.458E3,6.9E1,1.55E2,5.9E1,1.02E2,5.1E1,2.23E2,5.21E2,8.7E1,7.2E1,1.063E3,2.16E2,8.9E1,2.62E2,1.23E2,1.641E3,3.47E2,6.63E2,1.4E1,4E0,1.03E2,8.7E1,1.27E2,3E0,1.15E2,2.59E2,3.47E2,4.9E1,4.15E2,5E1,7.2E1,3.56E2,1.11E2,9E0,4E0,2E0,1.77E2,3.24E2,1E0,3E0,2.5E1,7.7E1,2E0,5.8E1],"tree_param":{"num_deleted":"0","num_feature":"8","num_nodes":"121","size_leaf_vector":"1"}},{"base_weights":[5.891331E-4,-2.2983718E-1,5.723803E-1,-4.4775814E-1,-6.384638E-2,3.420888E-1,1.0915744E0,-2.0690855E-1,-5.4324466E-1,4.4037768E-1,-1.6278261E-1,6.499182E-1,1.6240576E-1,8.543206E-1,1.3568406E0,-2.2646524E-3,-3.4739652E-1,-7.085777E-1,-4.639247E-1,6.479267E-2,6.7772365E-1,2.4546617E-1,-2.0012313E-1,3.217155E-1,7.975833E-1,4.3665756E-2,3.12044E-1,6.6148406E-1,1.1668632E0,1.0920278E0,1.4704242E0,7.577821E-2,-6.0109943E-1,-2.9707697E-1,-7.4107647E-1,-7.1211046E-1,3.1799892E-1,-2.3302566E-1,-5.2006763E-1,1.667157E-1,-2.4515666E-1,7.995505E-1,4.6109498E-2,6.686272E-1,-3.2291257E-1,-8.249034E-2,-3.5674983E-1,5.508503E-3,4.35745E-1,1.3104749E0,6.6708225E-1,1.0444209E-1,-2.4204028E-1,2.728309E-1,8.282444E-1,9.622685E-1,5.8534384E-1,1.1899389E0,1.3601023E-3,8.529428E-1,1.350488E0,5.726195E-1,1.4978462E0,4.6935454E-2,-4.4866122E-2,-1.1341963E-1,-0E0,-4.1817144E-2,-1.0556657E-1,-1.3575801E-1,-0E0,-7.957762E-2,-1.3296089E-1,-6.9581985E-2,-8.927837E-3,-6.3759305E-2,-1.0570539E-1,8.6250894E-2,-1.997535E-2,3.391783E-2,-7.012965E-2,2.664989E-1,1.24944665E-1,1.2172484E-1,-2.19766E-2,1.7965464E-1,8.6865306E-2,3.5338546E-3,-1.22641474E-1,1.0713089E-2,-7.118405E-2,-4.4346616E-2,-1.5348418E-1,1.5752786E-1,-1.2896128E-2,1.6233341E-1,5.924454E-2,1.5663193E-1,2.672594E-1,1.2933491E-1,-0E0,3.297292E-2,-4.3891426E-2,1.4465156E-1,-4.8523124E-2,1.6822344E-2,6.0044583E-2,1.6587288E-3,1.7633735E-1,3.200132E-2,1.9382216E-1,1.51545815E-2,1.10516354E-1,2.1911834E-1,1.1863316E-4,-2.7236111E-2,1.2921877E-1,1.1293489E-1,1.8022648E-1,2.4688056E-2,2.4827021E-1,-1.345927E-1,1.7304243E-1,2.7461535E-1,1.0711149E-1],"categories":[],"categories_nodes":[],"categories_segments":[],"categories_sizes":[],"default_left":[0,0,0,0,0,0,0,0,0,0,0,0,0,0,0,0,0,0,0,0,0,0,0,0,0,0,0,0,0,0,0,0,0,0,0,0,0,0,0,0,0,0,0,0,0,0,0,0,0,0,0,0,0,0,0,0,0,0,0,0,0,0,0,0,0,0,0,0,0,0,0,0,0,0,0,0,0,0,0,0,0,0,0,0,0,0,0,0,0,0,0,0,0,0,0,0,0,0,0,0,0,0,0,0,0,0,0,0,0,0,0,0,0,0,0,0,0,0,0,0,0,0,0,0,0],"id":3,"left_children":[1,3,5,7,9,11,13,15,17,19,21,23,25,27,29,31,33,35,37,39,41,43,45,47,49,51,53,55,57,59,61,63,65,67,69,71,-1,73,75,77,79,81,83,85,87,89,91,93,95,97,99,101,103,105,107,109,111,113,115,117,119,121,123,-1,-1,-1,-1,-1,-1,-1,-1,-1,-1,-1,-1,-1,-1,-1,-1,-1,-1,-1,-1,-1,-1,-1,-1,-1,-1,-1,-1,-1,-1,-1,-1,-1,-1,-1,-1,-1,-1,-1,-1,-1,-1,-1,-1,-1,-1,-1,-1,-1,-1,-1,-1,-1,-1,-1,-1,-1,-1,-1,-1,-1,-1],"loss_changes":[2.175877E3,4.255324E2,5.663733E2,1.16641846E2,3.333256E2,1.8146725E2,8.998181E1,4.1462364E1,4.7072144E1,9.736775E1,8.520079E1,5.806552E1,3.6773937E1,4.5247986E1,1.8459717E1,2.7839815E1,1.6417435E1,1.0799805E1,3.1578064E1,1.3451143E1,5.126779E1,1.1279314E2,9.416011E1,1.3453239E1,5.440741E1,2.0122839E1,1.7994354E1,9.983917E0,7.4254456E0,1.1270294E1,1.0317139E1,3.105535E1,9.389572E-1,1.40056E1,6.3973236E-1,6.360901E0,0E0,1.3283272E1,2.0637695E1,2.7756779E1,6.5620604E0,3.9843475E1,1.1769753E1,1.5513527E1,2.448131E1,1.2885603E2,1.1994629E2,7.0906854E0,1.3169109E1,1.0503174E1,2.0802734E1,2.5807419E1,5.414957E0,8.841373E0,7.210949E0,7.413742E0,4.500122E0,6.288391E0,1.0209823E0,2.5697403E0,1.7124634E0,8.543461E0,6.177246E0,0E0,0E0,0E0,0E0,0E0,0E0,0E0,0E0,0E0,0E0,0E0,0E0,0E0,0E0,0E0,0E0,0E0,0E0,0E0,0E0,0E0,0E0,0E0,0E0,0E0,0E0,0E0,0E0,0E0,0E0,0E0,0E0,0E0,0E0,0E0,0E0,0E0,0E0,0E0,0E0,0E0,0E0,0E0,0E0,0E0,0E0,0E0,0E0,0E0,0E0,0E0,0E0,0E0,0E0,0E0,0E0,0E0,0E0,0E0,0E0,0E0,0E0],"parents":[2147483647,0,0,1,1,2,2,3,3,4,4,5,5,6,6,7,7,8,8,9,9,10,10,11,11,12,12,13,13,14,14,15,15,16,16,17,17,18,18,19,19,20,20,21,21,22,22,23,23,24,24,25,25,26,26,27,27,28,28,29,29,30,30,31,31,32,32,33,33,34,34,35,35,37,37,38,38,39,39,40,40,41,41,42,42,43,43,44,44,45,45,46,46,47,47,48,48,49,49,50,50,51,51,52,52,53,53,54,54,55,55,56,56,57,57,58,58,59,59,60,60,61,61,62,62],"right_children":[2,4,6,8,10,12,14,16,18,20,22,24,26,28,30,32,34,36,38,40,42,44,46,48,50,52,54,56,58,60,62,64,66,68,70,72,-1,74,76,78,80,82,84,86,88,90,92,94,96,98,100,102,104,106,108,110,112,114,116,118,120,122,124,-1,-1,-1,-1,-1,-1,-1,-1,-1,-1,-1,-1,-1,-1,-1,-1,-1,-1,-1,-1,-1,-1,-1,-1,-1,-1,-1,-1,-1,-1,-1,-1,-1,-1,-1,-1,-1,-1,-1,-1,-1,-1,-1,-1,-1,-1,-1,-1,-1,-1,-1,-1,-1,-1,-1,-1,-1,-1,-1,-1,-1,-1],"split_conditions":[4.5417E0,2.7813E0,6.3525E0,3.8976834E0,2.2105262E0,2.6877055E0,7.6659E0,2.8965516E0,1.962E0,2.5E1,-1.2239E2,2.2E1,5.3283E0,2.7E1,1.9E1,3.793E1,-1.1778E2,2.5636364E1,2.2873304E0,3.761E1,3.782E1,3.832E1,3.451E1,7.72E2,2.1684783E0,-1.1768E2,3.7E1,2.6575E0,3.803E1,8.7471E0,1.38E2,-1.1821E2,3.8755245E0,3.443E1,4.074E3,2.02E0,3.1799892E-1,2.7E1,4.471328E0,-1.1831E2,-1.2246E2,-1.2241E2,-1.2241E2,2.5952382E0,3.87E1,-1.1778E2,-1.1996E2,-1.2225E2,2.048583E0,1.0186335E0,3.8E1,3.792E1,1.38E2,1.6E1,3.398E1,4.63E2,5.9530516E0,-1.1722E2,7.8377457E0,1.0094192E0,6.9E1,3.408E1,3.797E1,4.6935454E-2,-4.4866122E-2,-1.1341963E-1,-0E0,-4.1817144E-2,-1.0556657E-1,-1.3575801E-1,-0E0,-7.957762E-2,-1.3296089E-1,-6.9581985E-2,-8.927837E-3,-6.3759305E-2,-1.0570539E-1,8.6250894E-2,-1.997535E-2,3.391783E-2,-7.012965E-2,2.664989E-1,1.24944665E-1,1.2172484E-1,-2.19766E-2,1.7965464E-1,8.6865306E-2,3.5338546E-3,-1.22641474E-1,1.0713089E-2,-7.118405E-2,-4.4346616E-2,-1.5348418E-1,1.5752786E-1,-1.2896128E-2,1.6233341E-1,5.924454E-2,1.5663193E-1,2.672594E-1,1.2933491E-1,-0E0,3.297292E-2,-4.3891426E-2,1.4465156E-1,-4.8523124E-2,1.6822344E-2,6.0044583E-2,1.6587288E-3,1.7633735E-1,3.200132E-2,1.9382216E-1,1.51545815E-2,1.10516354E-1,2.1911834E-1,1.1863316E-4,-2.7236111E-2,1.2921877E-1,1.1293489E-1,1.8022648E-1,2.4688056E-2,2.4827021E-1,-1.345927E-1,1.7304243E-1,2.7461535E-1,1.0711149E-1],"split_indices":[0,0,0,2,5,5,0,5,0,1,7,1,0,1,1,6,7,3,5,6,6,6,6,4,5,7,1,5,6,0,4,7,2,6,4,5,0,1,2,7,7,7,7,5,6,7,7,7,5,3,6,6,4,1,6,4,2,7,2,3,4,6,6,0,0,0,0,0,0,0,0,0,0,0,0,0,0,0,0,0,0,0,0,0,0,0,0,0,0,0,0,0,0,0,0,0,0,0,0,0,0,0,0,0,0,0,0,0,0,0,0,0,0,0,0,0,0,0,0,0,0,0,0,0,0],"split_type":[0,0,0,0,0,0,0,0,0,0,0,0,0,0,0,0,0,0,0,0,0,0,0,0,0,0,0,0,0,0,0,0,0,0,0,0,0,0,0,0,0,0,0,0,0,0,0,0,0,0,0,0,0,0,0,0,0,0,0,0,0,0,0,0,0,0,0,0,0,0,0,0,0,0,0,0,0,0,0,0,0,0,0,0,0,0,0,0,0,0,0,0,0,0,0,0,0,0,0,0,0,0,0,0,0,0,0,0,0,0,0,0,0,0,0,0,0,0,0,0,0,0,0,0,0],"sum_hessian":[1.6512E4,1.1769E4,4.743E3,5.087E3,6.682E3,3.287E3,1.456E3,1.446E3,3.641E3,1.095E3,5.587E3,1.21E3,2.077E3,7.71E2,6.85E2,5.9E2,8.56E2,1.177E3,2.464E3,4.25E2,6.7E2,4.67E2,5.12E3,3.77E2,8.33E2,1.16E3,9.17E2,4.79E2,2.92E2,2.09E2,4.76E2,5.22E2,6.8E1,7.61E2,9.5E1,1.176E3,1E0,4.84E2,1.98E3,3.21E2,1.04E2,5.61E2,1.09E2,2.68E2,1.99E2,2.926E3,2.194E3,1.01E2,2.76E2,1.67E2,6.66E2,9.58E2,2.02E2,8.54E2,6.3E1,9.4E1,3.85E2,2.86E2,6E0,1.11E2,9.8E1,1.5E1,4.61E2,3.34E2,1.88E2,6.5E1,3E0,6.2E2,1.41E2,9.4E1,1E0,9E1,1.086E3,2.64E2,2.2E2,5.46E2,1.434E3,1.52E2,1.69E2,2.5E1,7.9E1,7.7E1,4.84E2,2.3E1,8.6E1,9.7E1,1.71E2,1.01E2,9.8E1,2.009E3,9.17E2,1.788E3,4.06E2,8E0,9.3E1,5.1E1,2.25E2,4.7E1,1.2E2,6.22E2,4.4E1,7.84E2,1.74E2,4E0,1.98E2,2.12E2,6.42E2,1E1,5.3E1,1.2E1,8.2E1,1.9E1,3.66E2,2.81E2,5E0,5E0,1E0,4.5E1,6.6E1,2E0,9.6E1,3E0,1.2E1,4.51E2,1E1],"tree_param":{"num_deleted":"0","num_feature":"8","num_nodes":"125","size_leaf_vector":"1"}},{"base_weights":[6.629823E-4,-1.7779727E-1,4.999556E-1,-3.6684403E-1,-4.1831583E-2,2.9349047E-1,8.8312054E-1,-1.7383188E-1,-4.4671488E-1,2.4261959E-1,-1.5992528E-1,6.6353023E-1,1.752435E-1,7.364382E-1,1.1884682E0,-1.8147638E-2,-3.1061465E-1,-5.417818E-1,-3.4680894E-1,3.4123752E-1,-2.2903971E-1,-1.0949337E-1,-3.860137E-1,3.528964E-1,8.085302E-1,5.6547767E-1,1.3624531E-1,5.799507E-1,9.949188E-1,3.4868845E-1,1.2081462E0,-2.679247E-1,1.06167436E-1,-9.363673E-2,-3.695738E-1,-2.061028E-1,-5.5975556E-1,-2.1718064E-1,-4.3127623E-1,9.944435E-1,2.607077E-1,2.2152597E-2,-3.4023714E-1,2.4170332E-1,-1.8640734E-1,-1.5348914E-1,-4.426187E-1,2.0154512E-1,7.403574E-1,1.1954998E0,6.9895005E-1,9.4839174E-1,4.2834696E-1,1.8490592E-1,-2.9175717E-1,4.8131418E-1,7.4795014E-1,1.0814589E0,6.62655E-1,7.944271E-1,-2.323721E-1,1.0249294E0,1.3077452E0,1.1527523E-3,-7.243534E-2,3.6302783E-2,-7.26703E-2,9.586562E-3,-6.0901444E-2,-9.726342E-2,-5.3373575E-2,2.091942E-1,-4.2308148E-2,-1.01773396E-1,2.8509745E-1,6.625601E-2,-5.2265346E-2,-6.455182E-2,-1.23898596E-1,1.03225626E-1,2.4098596E-1,6.686771E-2,-1.4194508E-2,1.2721826E-1,-2.2086166E-2,-6.447454E-2,3.794052E-2,9.9739164E-2,1.8481659E-2,-1.9040762E-2,-1.0149754E-1,2.0447575E-2,-1.0577927E-1,-8.819284E-2,-5.3288564E-2,-8.241229E-2,5.1577557E-2,1.5702875E-1,-7.838867E-3,9.72793E-3,2.2655815E-1,5.2835073E-2,1.3935374E-1,9.698598E-2,2.0307435E-1,1.02790125E-1,2.8048906E-2,4.825402E-2,-6.6716354E-3,-1.53164E-1,-4.4254925E-2,1.16383046E-1,5.8041263E-2,1.5471745E-1,9.072176E-2,1.7424119E-1,2.4799319E-1,2.2412534E-1,7.844366E-2,2.0113837E-3,1.8116698E-1,-1.1551361E-1,1.3639788E-1,1.4816645E-1,2.164499E-1,2.3918582E-1,-0E0],"categories":[],"categories_nodes":[],"categories_segments":[],"categories_sizes":[],"default_left":[0,0,0,0,0,0,0,0,0,0,0,0,0,0,0,0,0,0,0,0,0,0,0,0,0,0,0,0,0,0,0,0,0,0,0,0,0,0,0,0,0,0,0,0,0,0,0,0,0,0,0,0,0,0,0,0,0,0,0,0,0,0,0,0,0,0,0,0,0,0,0,0,0,0,0,0,0,0,0,0,0,0,0,0,0,0,0,0,0,0,0,0,0,0,0,0,0,0,0,0,0,0,0,0,0,0,0,0,0,0,0,0,0,0,0,0,0,0,0,0,0,0,0,0,0,0,0],"id":4,"left_children":[1,3,5,7,9,11,13,15,17,19,21,23,25,27,29,31,33,35,37,39,41,43,45,47,49,51,53,55,57,59,61,63,65,67,69,71,73,75,77,79,81,83,85,87,89,91,93,95,97,99,101,103,105,107,109,111,113,115,117,119,121,123,125,-1,-1,-1,-1,-1,-1,-1,-1,-1,-1,-1,-1,-1,-1,-1,-1,-1,-1,-1,-1,-1,-1,-1,-1,-1,-1,-1,-1,-1,-1,-1,-1,-1,-1,-1,-1,-1,-1,-1,-1,-1,-1,-1,-1,-1,-1,-1,-1,-1,-1,-1,-1,-1,-1,-1,-1,-1,-1,-1,-1,-1,-1,-1,-1],"loss_changes":[1.4715378E3,3.125164E2,3.4339465E2,7.814197E1,2.3775314E2,1.2332945E2,6.677893E1,3.1639183E1,3.3686707E1,9.665234E1,5.6824158E1,3.0147675E1,3.2318718E1,4.0669067E1,7.2261353E0,2.1810015E1,9.9418335E0,1.0726135E1,1.8932709E1,8.969272E1,1.0145554E1,1.1056617E2,1.1712784E1,1.2421518E1,1.8369598E1,9.352425E0,4.064925E1,9.952835E0,9.928619E0,3.6518111E0,6.873657E0,8.61125E0,2.2305567E1,6.2260957E0,7.365822E0,3.437162E0,8.162964E0,2.9038155E1,1.9525757E1,2.5500427E1,5.6423553E1,1.1038279E1,2.2683487E0,3.1416958E1,1.01800606E2,2.0953686E1,4.4018707E0,8.76001E0,6.362545E0,5.82016E0,9.890717E0,2.477024E0,5.1713963E0,3.1784988E1,4.6574326E0,1.0111633E1,5.357956E0,8.613678E0,9.889442E0,8.6162806E-1,2.6142998E0,4.625305E0,5.052002E0,0E0,0E0,0E0,0E0,0E0,0E0,0E0,0E0,0E0,0E0,0E0,0E0,0E0,0E0,0E0,0E0,0E0,0E0,0E0,0E0,0E0,0E0,0E0,0E0,0E0,0E0,0E0,0E0,0E0,0E0,0E0,0E0,0E0,0E0,0E0,0E0,0E0,0E0,0E0,0E0,0E0,0E0,0E0,0E0,0E0,0E0,0E0,0E0,0E0,0E0,0E0,0E0,0E0,0E0,0E0,0E0,0E0,0E0,0E0,0E0,0E0,0E0,0E0,0E0],"parents":[2147483647,0,0,1,1,2,2,3,3,4,4,5,5,6,6,7,7,8,8,9,9,10,10,11,11,12,12,13,13,14,14,15,15,16,16,17,17,18,18,19,19,20,20,21,21,22,22,23,23,24,24,25,25,26,26,27,27,28,28,29,29,30,30,31,31,32,32,33,33,34,34,35,35,36,36,37,37,38,38,39,39,40,40,41,41,42,42,43,43,44,44,45,45,46,46,47,47,48,48,49,49,50,50,51,51,52,52,53,53,54,54,55,55,56,56,57,57,58,58,59,59,60,60,61,61,62,62],"right_children":[2,4,6,8,10,12,14,16,18,20,22,24,26,28,30,32,34,36,38,40,42,44,46,48,50,52,54,56,58,60,62,64,66,68,70,72,74,76,78,80,82,84,86,88,90,92,94,96,98,100,102,104,106,108,110,112,114,116,118,120,122,124,126,-1,-1,-1,-1,-1,-1,-1,-1,-1,-1,-1,-1,-1,-1,-1,-1,-1,-1,-1,-1,-1,-1,-1,-1,-1,-1,-1,-1,-1,-1,-1,-1,-1,-1,-1,-1,-1,-1,-1,-1,-1,-1,-1,-1,-1,-1,-1,-1,-1,-1,-1,-1,-1,-1,-1,-1,-1,-1,-1,-1,-1,-1,-1,-1],"split_conditions":[4.6875E0,2.7813E0,6.2924E0,3.9149425E0,2.448485E0,2.516854E0,8.1988E0,3.1092784E0,2.2206E0,3.794E1,3.79E1,2.2E1,-1.2222E2,2.8E1,6.9E1,1.7235E0,3.045238E0,1.9127358E0,3.468E1,-1.2232E2,-1.2236E2,-1.2127E2,-1.2244E2,5.6345E0,2.0756502E0,3.765E1,3.796E1,7.2216E0,3.761E1,-1.2185E2,2.2E1,2.8033395E0,-1.1722E2,-1.1826E2,1.8485E0,3E0,2.5636364E1,-1.1835E2,-1.2017E2,3.777E1,-1.1789E2,3.801E1,1.8793522E1,-1.2224E2,3.468E1,3.87E1,-1.2122E2,3.69E2,3.796E1,9.6218485E-1,9.6734697E-1,5.6405063E0,-1.2241E2,-1.1789E2,5.5914397E0,3.0088692E0,-1.1784E2,1.0582707E0,-1.2239E2,4.675079E0,8.70948E0,9.281E0,4.247093E0,1.1527523E-3,-7.243534E-2,3.6302783E-2,-7.26703E-2,9.586562E-3,-6.0901444E-2,-9.726342E-2,-5.3373575E-2,2.091942E-1,-4.2308148E-2,-1.01773396E-1,2.8509745E-1,6.625601E-2,-5.2265346E-2,-6.455182E-2,-1.23898596E-1,1.03225626E-1,2.4098596E-1,6.686771E-2,-1.4194508E-2,1.2721826E-1,-2.2086166E-2,-6.447454E-2,3.794052E-2,9.9739164E-2,1.8481659E-2,-1.9040762E-2,-1.0149754E-1,2.0447575E-2,-1.0577927E-1,-8.819284E-2,-5.3288564E-2,-8.241229E-2,5.1577557E-2,1.5702875E-1,-7.838867E-3,9.72793E-3,2.2655815E-1,5.2835073E-2,1.3935374E-1,9.698598E-2,2.0307435E-1,1.02790125E-1,2.8048906E-2,4.825402E-2,-6.6716354E-3,-1.53164E-1,-4.4254925E-2,1.16383046E-1,5.8041263E-2,1.5471745E-1,9.072176E-2,1.7424119E-1,2.4799319E-1,2.2412534E-1,7.844366E-2,2.0113837E-3,1.8116698E-1,-1.1551361E-1,1.3639788E-1,1.4816645E-1,2.164499E-1,2.3918582E-1,-0E0],"split_indices":[0,0,0,2,5,5,0,5,0,6,6,1,7,1,4,0,2,5,6,7,7,7,7,0,5,6,6,0,6,7,1,2,7,7,0,1,3,7,7,6,7,6,2,7,6,6,7,4,6,3,3,2,7,7,2,5,7,3,7,2,2,0,5,0,0,0,0,0,0,0,0,0,0,0,0,0,0,0,0,0,0,0,0,0,0,0,0,0,0,0,0,0,0,0,0,0,0,0,0,0,0,0,0,0,0,0,0,0,0,0,0,0,0,0,0,0,0,0,0,0,0,0,0,0,0,0,0],"split_type":[0,0,0,0,0,0,0,0,0,0,0,0,0,0,0,0,0,0,0,0,0,0,0,0,0,0,0,0,0,0,0,0,0,0,0,0,0,0,0,0,0,0,0,0,0,0,0,0,0,0,0,0,0,0,0,0,0,0,0,0,0,0,0,0,0,0,0,0,0,0,0,0,0,0,0,0,0,0,0,0,0,0,0,0,0,0,0,0,0,0,0,0,0,0,0,0,0,0,0,0,0,0,0,0,0,0,0,0,0,0,0,0,0,0,0,0,0,0,0,0,0,0,0,0,0,0,0],"sum_hessian":[1.6512E4,1.2164E4,4.348E3,5.087E3,7.077E3,2.827E3,1.521E3,1.491E3,3.596E3,2.075E3,5.002E3,6.83E2,2.144E3,1.03E3,4.91E2,6.99E2,7.92E2,1.839E3,1.757E3,1.717E3,3.58E2,4.092E3,9.1E2,2.19E2,4.64E2,1.93E2,1.951E3,6.44E2,3.86E2,1.2E1,4.79E2,2.33E2,4.66E2,1.71E2,6.21E2,9.5E1,1.744E3,6.96E2,1.061E3,1.87E2,1.53E3,1.09E2,2.49E2,7.34E2,3.358E3,1.8E2,7.3E2,1.59E2,6E1,1E2,3.64E2,4.9E1,1.44E2,1.753E3,1.98E2,4.09E2,2.35E2,3.04E2,8.2E1,7E0,5E0,1.73E2,3.06E2,7.5E1,1.58E2,3.94E2,7.2E1,1.06E2,6.5E1,1.89E2,4.32E2,1E0,9.4E1,1.743E3,1E0,7.5E1,6.21E2,8.21E2,2.4E2,8.4E1,1.03E2,1.16E3,3.7E2,1.9E1,9E1,2.43E2,6E0,2.27E2,5.07E2,2.76E3,5.98E2,1.11E2,6.9E1,5.59E2,1.71E2,1.7E1,1.42E2,5.2E1,8E0,5E0,9.5E1,5.5E1,3.09E2,1.6E1,3.3E1,9.4E1,5E1,1.283E3,4.7E2,1.4E1,1.84E2,2.02E2,2.07E2,1.62E2,7.3E1,2.18E2,8.6E1,2.2E1,6E1,2E0,5E0,4E0,1E0,8.1E1,9.2E1,3.03E2,3E0],"tree_param":{"num_deleted":"0","num_feature":"8","num_nodes":"127","size_leaf_vector":"1"}},{"base_weights":[7.322597E-4,-2.0566517E-1,2.998731E-1,1.2199957E-1,-2.4715988E-1,1.4449276E-1,6.429848E-1,-7.053765E-2,3.338262E-1,-3.9532226E-1,-1.880947E-1,4.7029907E-1,4.2885303E-2,5.101754E-1,9.1592276E-1,5.2159302E-2,-2.6205614E-1,4.8919332E-1,-1.9598854E-1,-8.0729194E-2,-4.427903E-1,-1.5090728E-1,-4.307616E-1,4.3018516E-2,5.9122956E-1,1.4781027E-1,-8.2814924E-2,7.457506E-1,3.8833633E-1,9.905241E-1,6.825635E-1,5.378453E-1,-1.7977767E-1,-7.102763E-1,-1.2604831E-1,5.5107486E-1,-3.2358715E-1,-2.3086285E-2,-3.909336E-1,-3.3023798E-1,6.226628E-2,-3.4849226E-1,-5.133739E-1,3.7302762E-1,-1.8119717E-1,-3.5754523E-1,-5.8435863E-1,-6.4708225E-2,1.6875276E-1,9.611926E-1,4.3140075E-1,2.0444688E-1,-1.0333623E-1,1.04878776E-1,-1.4259098E-1,3.3987948E-1,8.0881816E-1,3.5897857E-1,9.328104E-1,1.1714988E0,9.043442E-1,9.191105E-1,4.649099E-1,1.3650888E-1,2.593263E-2,1.1659317E-3,-8.295151E-2,2.6473958E-2,-1.4712349E-1,2.0824233E-2,-5.8890235E-2,-1.08728185E-2,1.15777E-1,1.9140866E-2,-7.844601E-2,5.4844167E-2,-2.1117466E-2,-5.7763115E-2,-1.0908613E-1,-7.9448335E-2,-2.2798974E-2,-4.471679E-2,2.9787233E-2,6.866994E-2,-6.7685984E-2,-8.124622E-2,-1.2124434E-1,1.0003907E-1,-0E0,-2.351683E-2,-7.266574E-2,-7.797987E-2,-4.320372E-2,-0E0,-1.06445566E-1,-2.9912638E-2,1.9992968E-2,-4.9256902E-2,4.0910043E-2,1.8612975E-1,6.6945486E-2,1.0541659E-1,2.5704281E-2,1.1982716E-1,2.898646E-2,3.431505E-2,-4.1692987E-2,3.896537E-2,-3.1876255E-2,-1.3464223E-2,-7.416901E-2,-0E0,1.0250352E-1,1.2047339E-1,1.8065771E-1,5.2470934E-2,9.918964E-2,1.9170903E-1,-4.8129264E-2,-1.8057851E-2,2.141241E-1,-1.0928176E-2,1.6652203E-1,2.9190504E-3,1.7196059E-1,9.866873E-2,-3.6525916E-2],"categories":[],"categories_nodes":[],"categories_segments":[],"categories_sizes":[],"default_left":[0,0,0,0,0,0,0,0,0,0,0,0,0,0,0,0,0,0,0,0,0,0,0,0,0,0,0,0,0,0,0,0,0,0,0,0,0,0,0,0,0,0,0,0,0,0,0,0,0,0,0,0,0,0,0,0,0,0,0,0,0,0,0,0,0,0,0,0,0,0,0,0,0,0,0,0,0,0,0,0,0,0,0,0,0,0,0,0,0,0,0,0,0,0,0,0,0,0,0,0,0,0,0,0,0,0,0,0,0,0,0,0,0,0,0,0,0,0,0,0,0,0,0,0,0,0,0],"id":5,"left_children":[1,3,5,7,9,11,13,15,17,19,21,23,25,27,29,31,33,35,37,39,41,43,45,47,49,51,53,55,57,59,61,63,65,67,69,71,73,75,77,79,81,83,85,87,89,91,93,95,97,99,101,103,105,107,109,111,113,115,117,119,121,123,125,-1,-1,-1,-1,-1,-1,-1,-1,-1,-1,-1,-1,-1,-1,-1,-1,-1,-1,-1,-1,-1,-1,-1,-1,-1,-1,-1,-1,-1,-1,-1,-1,-1,-1,-1,-1,-1,-1,-1,-1,-1,-1,-1,-1,-1,-1,-1,-1,-1,-1,-1,-1,-1,-1,-1,-1,-1,-1,-1,-1,-1,-1,-1,-1],"loss_changes":[1.0196103E3,1.3291617E2,3.5911E2,4.488765E1,7.563141E1,1.5348764E2,7.5263916E1,1.35948925E1,4.329488E1,3.665793E1,5.5725708E1,5.672354E1,4.6732845E1,3.9992554E1,1.0803162E1,3.9605778E1,1.3381229E1,2.0626862E1,3.8406143E0,1.1738274E1,1.3817657E1,8.540267E1,8.742416E0,3.3623514E0,4.9945038E1,2.7531174E1,1.8086117E1,1.1668762E1,1.4221695E1,6.4855957E0,7.8998413E0,9.270699E0,1.2435603E1,4.8581123E0,8.491368E0,2.0585289E1,1.5085273E0,1.9295352E0,3.4375763E-1,2.3993063E0,6.530596E0,1.7016418E1,1.1720856E1,1.975002E1,5.7271576E1,4.5420837E0,6.7316437E-1,2.3334112E0,2.916546E0,9.3151245E0,2.5898643E1,3.1646019E1,1.3222557E1,1.2048894E1,2.2070217E1,5.339331E0,1.0117126E1,1.11970825E1,7.5448227E0,2.6957703E0,5.4945984E0,1.8049927E0,5.0396233E0,0E0,0E0,0E0,0E0,0E0,0E0,0E0,0E0,0E0,0E0,0E0,0E0,0E0,0E0,0E0,0E0,0E0,0E0,0E0,0E0,0E0,0E0,0E0,0E0,0E0,0E0,0E0,0E0,0E0,0E0,0E0,0E0,0E0,0E0,0E0,0E0,0E0,0E0,0E0,0E0,0E0,0E0,0E0,0E0,0E0,0E0,0E0,0E0,0E0,0E0,0E0,0E0,0E0,0E0,0E0,0E0,0E0,0E0,0E0,0E0,0E0,0E0,0E0,0E0],"parents":[2147483647,0,0,1,1,2,2,3,3,4,4,5,5,6,6,7,7,8,8,9,9,10,10,11,11,12,12,13,13,14,14,15,15,16,16,17,17,18,18,19,19,20,20,21,21,22,22,23,23,24,24,25,25,26,26,27,27,28,28,29,29,30,30,31,31,32,32,33,33,34,34,35,35,36,36,37,37,38,38,39,39,40,40,41,41,42,42,43,43,44,44,45,45,46,46,47,47,48,48,49,49,50,50,51,51,52,52,53,53,54,54,55,55,56,56,57,57,58,58,59,59,60,60,61,61,62,62],"right_children":[2,4,6,8,10,12,14,16,18,20,22,24,26,28,30,32,34,36,38,40,42,44,46,48,50,52,54,56,58,60,62,64,66,68,70,72,74,76,78,80,82,84,86,88,90,92,94,96,98,100,102,104,106,108,110,112,114,116,118,120,122,124,126,-1,-1,-1,-1,-1,-1,-1,-1,-1,-1,-1,-1,-1,-1,-1,-1,-1,-1,-1,-1,-1,-1,-1,-1,-1,-1,-1,-1,-1,-1,-1,-1,-1,-1,-1,-1,-1,-1,-1,-1,-1,-1,-1,-1,-1,-1,-1,-1,-1,-1,-1,-1,-1,-1,-1,-1,-1,-1,-1,-1,-1,-1,-1,-1],"split_conditions":[3.9375E0,2.0333333E0,5.826E0,2.8E1,2.2206E0,2.448485E0,7.6659E0,-1.1816E2,3.782E1,3.305851E0,3.848E1,1.7E1,3.0298102E0,2.6575E0,-1.18E2,3.495E1,1.5668104E0,-1.1715E2,3.848E1,1.0294737E0,3.451E1,-1.2236E2,3.941E1,1.0884265E0,2.0605633E0,3.793E1,-1.2149E2,1.5E1,4.1E1,3.414E1,3.364E1,-1.1837E2,-1.2188E2,3.276E1,-1.1723E2,3.1909723E0,1.7270375E0,-1.2245E2,3.864E1,1.669E3,3.403E1,-1.1837E2,-1.1985E2,3.811E1,-1.1768E2,-1.2133E2,6.9E1,1.611E3,4.0417E0,3.781E1,3.761E1,-1.2222E2,-1.2228E2,3.792E1,3.451E1,1.0575917E0,1.0401607E0,6.828E0,3.3087718E0,8.125E-1,4.675079E0,3.16E2,-1.1749E2,1.3650888E-1,2.593263E-2,1.1659317E-3,-8.295151E-2,2.6473958E-2,-1.4712349E-1,2.0824233E-2,-5.8890235E-2,-1.08728185E-2,1.15777E-1,1.9140866E-2,-7.844601E-2,5.4844167E-2,-2.1117466E-2,-5.7763115E-2,-1.0908613E-1,-7.9448335E-2,-2.2798974E-2,-4.471679E-2,2.9787233E-2,6.866994E-2,-6.7685984E-2,-8.124622E-2,-1.2124434E-1,1.0003907E-1,-0E0,-2.351683E-2,-7.266574E-2,-7.797987E-2,-4.320372E-2,-0E0,-1.06445566E-1,-2.9912638E-2,1.9992968E-2,-4.9256902E-2,4.0910043E-2,1.8612975E-1,6.6945486E-2,1.0541659E-1,2.5704281E-2,1.1982716E-1,2.898646E-2,3.431505E-2,-4.1692987E-2,3.896537E-2,-3.1876255E-2,-1.3464223E-2,-7.416901E-2,-0E0,1.0250352E-1,1.2047339E-1,1.8065771E-1,5.2470934E-2,9.918964E-2,1.9170903E-1,-4.8129264E-2,-1.8057851E-2,2.141241E-1,-1.0928176E-2,1.6652203E-1,2.9190504E-3,1.7196059E-1,9.866873E-2,-3.6525916E-2],"split_indices":[0,5,0,1,0,5,0,7,6,2,6,1,5,5,7,6,5,7,6,3,6,7,6,3,5,6,7,1,1,6,6,7,7,6,7,2,5,7,6,4,6,7,7,6,7,7,4,4,0,6,6,7,7,6,6,3,3,0,5,3,2,4,7,0,0,0,0,0,0,0,0,0,0,0,0,0,0,0,0,0,0,0,0,0,0,0,0,0,0,0,0,0,0,0,0,0,0,0,0,0,0,0,0,0,0,0,0,0,0,0,0,0,0,0,0,0,0,0,0,0,0,0,0,0,0,0,0],"split_type":[0,0,0,0,0,0,0,0,0,0,0,0,0,0,0,0,0,0,0,0,0,0,0,0,0,0,0,0,0,0,0,0,0,0,0,0,0,0,0,0,0,0,0,0,0,0,0,0,0,0,0,0,0,0,0,0,0,0,0,0,0,0,0,0,0,0,0,0,0,0,0,0,0,0,0,0,0,0,0,0,0,0,0,0,0,0,0,0,0,0,0,0,0,0,0,0,0,0,0,0,0,0,0,0,0,0,0,0,0,0,0,0,0,0,0,0,0,0,0,0,0,0,0,0,0,0,0],"sum_hessian":[1.6512E4,9.77E3,6.742E3,1.097E3,8.673E3,4.642E3,2.1E3,5.74E2,5.23E2,2.469E3,6.204E3,1.102E3,3.54E3,1.415E3,6.85E2,3.49E2,2.25E2,4.05E2,1.18E2,3.25E2,2.144E3,5.382E3,8.22E2,2.44E2,8.58E2,1.931E3,1.609E3,4.8E2,9.35E2,5.16E2,1.69E2,1.13E2,2.36E2,5.1E1,1.74E2,3.77E2,2.8E1,6.4E1,5.4E1,1.19E2,2.06E2,9.22E2,1.222E3,2.93E2,5.089E3,5.6E2,2.62E2,1.3E2,1.14E2,2.57E2,6.01E2,1.577E3,3.54E2,3.87E2,1.222E3,6.6E1,4.14E2,8.89E2,4.6E1,1.62E2,3.54E2,7.9E1,9E1,7.2E1,4.1E1,1.41E2,9.5E1,5E0,4.6E1,7.8E1,9.6E1,4.7E1,3.3E2,5E0,2.3E1,1.3E1,5.1E1,4.3E1,1.1E1,7.6E1,4.3E1,5E1,1.56E2,3E1,8.92E2,8.67E2,3.55E2,1.98E2,9.5E1,4.128E3,9.61E2,3.44E2,2.16E2,1E0,2.61E2,8.4E1,4.6E1,1.2E1,1.02E2,2.3E2,2.7E1,3.94E2,2.07E2,1.38E2,1.439E3,1.06E2,2.48E2,2.79E2,1.08E2,9.75E2,2.47E2,2.6E1,4E1,2.38E2,1.76E2,6.53E2,2.36E2,4.2E1,4E0,1E0,1.61E2,5E0,3.49E2,3E0,7.6E1,8.1E1,9E0],"tree_param":{"num_deleted":"0","num_feature":"8","num_nodes":"127","size_leaf_vector":"1"}},{"base_weights":[6.5046316E-4,-8.428734E-2,4.9504358E-1,-1.8905862E-1,8.734029E-2,3.7916476E-1,7.2279125E-1,-6.558866E-2,-2.662209E-1,4.219347E-1,2.0006344E-2,5.00313E-1,1.7645946E-1,6.2953776E-1,8.810207E-1,3.4360223E-2,-3.0350345E-1,-1.8388729E-1,-3.641786E-1,1.4748916E-1,5.9604585E-1,1.1400671E-1,-9.3570285E-2,5.686125E-1,1.7803258E-1,-3.134391E-2,2.1702279E-1,5.121344E-1,8.105583E-1,2.0438741E-1,9.0749365E-1,7.5293577E-1,-9.094719E-3,-2.4168403E-1,-4.7255743E-1,-9.444073E-2,-3.9002767E-1,-2.0108667E-1,-4.632443E-1,-3.3704525E-1,2.2879085E-1,6.9607747E-1,1.2840985E-1,1.6707933E-1,-1.0354861E-1,5.7289556E-2,-1.3903727E-1,6.878434E-1,2.776084E-1,4.5503163E-1,-1.3956548E-1,-2.6940414E-1,4.3782778E-2,2.5075802E-1,-1.0334276E-1,8.169816E-1,4.5128843E-1,-1.0005919E-1,8.313594E-1,-2.9728726E-1,6.052012E-1,9.165895E-1,-2.6342511E-2,-3.1454768E-2,1.53396E-1,7.167221E-3,-6.1130505E-2,-2.3601761E-2,-5.6181386E-2,-5.2992944E-2,-9.143193E-2,1.0397524E-2,-3.7336476E-2,1.5661022E-1,-7.214924E-2,-1.5606783E-2,-8.635057E-2,-9.442098E-2,-6.3354455E-2,-3.9671455E-2,-2.4298574E-1,1.2996056E-2,7.965335E-2,1.3098429E-1,-1.2386576E-1,9.0868995E-2,-3.8853865E-3,5.0742418E-2,1.6549097E-3,2.5541883E-2,-3.4745626E-2,7.855047E-2,-1.2847923E-3,-1.4639649E-2,-6.4377755E-2,1.0652162E-1,1.7144348E-1,1.4383598E-1,9.805947E-3,1.1701949E-1,-3.0759124E-3,-7.295182E-3,-1.8983886E-1,-0E0,-7.10334E-2,1.5711958E-2,-6.098416E-2,1.4471917E-1,4.2135768E-2,1.5562754E-2,-4.629446E-2,-9.366644E-2,1.5561809E-1,1.13453016E-1,6.684027E-2,1.3461872E-4,-5.613275E-2,1.612001E-1,9.923674E-2,-1.6640344E-1,8.9624785E-2,-0E0,1.363506E-1,1.6769452E-1,2.6790267E-2],"categories":[],"categories_nodes":[],"categories_segments":[],"categories_sizes":[],"default_left":[0,0,0,0,0,0,0,0,0,0,0,0,0,0,0,0,0,0,0,0,0,0,0,0,0,0,0,0,0,0,0,0,0,0,0,0,0,0,0,0,0,0,0,0,0,0,0,0,0,0,0,0,0,0,0,0,0,0,0,0,0,0,0,0,0,0,0,0,0,0,0,0,0,0,0,0,0,0,0,0,0,0,0,0,0,0,0,0,0,0,0,0,0,0,0,0,0,0,0,0,0,0,0,0,0,0,0,0,0,0,0,0,0,0,0,0,0,0,0,0,0,0,0,0,0],"id":6,"left_children":[1,3,5,7,9,11,13,15,17,19,21,23,25,27,29,31,33,35,37,39,41,43,45,47,49,51,53,55,57,59,61,63,65,67,69,71,73,75,77,79,81,83,85,87,89,91,93,95,97,99,101,103,105,107,109,111,113,115,117,119,121,123,-1,-1,-1,-1,-1,-1,-1,-1,-1,-1,-1,-1,-1,-1,-1,-1,-1,-1,-1,-1,-1,-1,-1,-1,-1,-1,-1,-1,-1,-1,-1,-1,-1,-1,-1,-1,-1,-1,-1,-1,-1,-1,-1,-1,-1,-1,-1,-1,-1,-1,-1,-1,-1,-1,-1,-1,-1,-1,-1,-1,-1,-1,-1],"loss_changes":[6.9359973E2,2.5344342E2,6.32937E1,8.324234E1,1.20152695E2,3.9162094E1,1.1039185E1,8.021536E1,4.3165253E1,4.2362167E1,4.750095E1,2.1760162E1,5.1638775E0,1.01744995E1,4.7951355E0,7.434358E1,1.0073715E1,5.3792564E1,3.9358E1,1.3755787E1,2.5153015E1,2.8160551E1,1.3842375E1,2.8214722E1,1.580349E1,1.8417106E0,5.551502E0,5.122902E0,4.1392975E0,2.8144243E0,3.135559E0,1.217852E1,3.5867058E1,5.401394E0,1.1255417E0,3.4741463E1,9.291214E0,2.9242054E1,9.584686E0,5.092133E0,9.715119E0,1.7143982E1,5.656059E0,3.4884914E1,1.0331791E1,1.1424074E1,1.9323626E1,1.4121155E1,2.7667727E1,8.877016E0,7.0246716E0,7.797363E-1,1.1336246E0,4.0441666E0,1.4559685E0,3.3160553E0,3.2953568E0,2.1660575E-1,2.363083E0,3.3306918E0,4.1983294E-1,1.5127563E0,0E0,0E0,0E0,0E0,0E0,0E0,0E0,0E0,0E0,0E0,0E0,0E0,0E0,0E0,0E0,0E0,0E0,0E0,0E0,0E0,0E0,0E0,0E0,0E0,0E0,0E0,0E0,0E0,0E0,0E0,0E0,0E0,0E0,0E0,0E0,0E0,0E0,0E0,0E0,0E0,0E0,0E0,0E0,0E0,0E0,0E0,0E0,0E0,0E0,0E0,0E0,0E0,0E0,0E0,0E0,0E0,0E0,0E0,0E0,0E0,0E0,0E0,0E0],"parents":[2147483647,0,0,1,1,2,2,3,3,4,4,5,5,6,6,7,7,8,8,9,9,10,10,11,11,12,12,13,13,14,14,15,15,16,16,17,17,18,18,19,19,20,20,21,21,22,22,23,23,24,24,25,25,26,26,27,27,28,28,29,29,30,30,31,31,32,32,33,33,34,34,35,35,36,36,37,37,38,38,39,39,40,40,41,41,42,42,43,43,44,44,45,45,46,46,47,47,48,48,49,49,50,50,51,51,52,52,53,53,54,54,55,55,56,56,57,57,58,58,59,59,60,60,61,61],"right_children":[2,4,6,8,10,12,14,16,18,20,22,24,26,28,30,32,34,36,38,40,42,44,46,48,50,52,54,56,58,60,62,64,66,68,70,72,74,76,78,80,82,84,86,88,90,92,94,96,98,100,102,104,106,108,110,112,114,116,118,120,122,124,-1,-1,-1,-1,-1,-1,-1,-1,-1,-1,-1,-1,-1,-1,-1,-1,-1,-1,-1,-1,-1,-1,-1,-1,-1,-1,-1,-1,-1,-1,-1,-1,-1,-1,-1,-1,-1,-1,-1,-1,-1,-1,-1,-1,-1,-1,-1,-1,-1,-1,-1,-1,-1,-1,-1,-1,-1,-1,-1,-1,-1,-1,-1],"split_conditions":[5.5942E0,3.6591E0,7.3518E0,2.6063492E0,2.3019416E0,3.0088692E0,9.281E0,3.792E1,3.444E1,2.4E1,2.9758065E0,-1.1786E2,6.0815787E0,2.9E1,6.9E1,-1.2234E2,3.941E1,-1.1778E2,-1.2158E2,5.15E2,3.782E1,3.794E1,-1.2149E2,3.761E1,3.361E1,7.61E2,3.796E1,2.5641026E0,1.68E2,3.723E1,3.799E1,2.4E1,-1.1712E2,-1.2191E2,1.6E1,3.4511628E0,4.1E1,3.868E1,5.5021834E0,2.1E1,1.7E1,-1.1715E2,-1.2249E2,-1.1822E2,-1.2241E2,3.727E1,3.451E1,1.0582707E0,-1.2239E2,-1.1717E2,3.415E1,-1.1839E2,-1.1778E2,-1.2202E2,-1.2207E2,9.6218485E-1,-1.2171E2,4.675079E0,3.781E1,8.70948E0,8E0,-1.1706E2,-2.6342511E-2,-3.1454768E-2,1.53396E-1,7.167221E-3,-6.1130505E-2,-2.3601761E-2,-5.6181386E-2,-5.2992944E-2,-9.143193E-2,1.0397524E-2,-3.7336476E-2,1.5661022E-1,-7.214924E-2,-1.5606783E-2,-8.635057E-2,-9.442098E-2,-6.3354455E-2,-3.9671455E-2,-2.4298574E-1,1.2996056E-2,7.965335E-2,1.3098429E-1,-1.2386576E-1,9.0868995E-2,-3.8853865E-3,5.0742418E-2,1.6549097E-3,2.5541883E-2,-3.4745626E-2,7.855047E-2,-1.2847923E-3,-1.4639649E-2,-6.4377755E-2,1.0652162E-1,1.7144348E-1,1.4383598E-1,9.805947E-3,1.1701949E-1,-3.0759124E-3,-7.295182E-3,-1.8983886E-1,-0E0,-7.10334E-2,1.5711958E-2,-6.098416E-2,1.4471917E-1,4.2135768E-2,1.5562754E-2,-4.629446E-2,-9.366644E-2,1.5561809E-1,1.13453016E-1,6.684027E-2,1.3461872E-4,-5.613275E-2,1.612001E-1,9.923674E-2,-1.6640344E-1,8.9624785E-2,-0E0,1.363506E-1,1.6769452E-1,2.6790267E-2],"split_indices":[0,0,0,5,5,5,0,6,6,1,5,7,2,1,4,7,6,7,7,4,6,6,7,6,6,4,6,5,4,6,6,1,7,7,1,5,4,6,2,1,1,7,7,7,7,6,6,3,7,7,6,7,7,7,7,3,7,2,6,2,1,7,0,0,0,0,0,0,0,0,0,0,0,0,0,0,0,0,0,0,0,0,0,0,0,0,0,0,0,0,0,0,0,0,0,0,0,0,0,0,0,0,0,0,0,0,0,0,0,0,0,0,0,0,0,0,0,0,0,0,0,0,0,0,0],"split_type":[0,0,0,0,0,0,0,0,0,0,0,0,0,0,0,0,0,0,0,0,0,0,0,0,0,0,0,0,0,0,0,0,0,0,0,0,0,0,0,0,0,0,0,0,0,0,0,0,0,0,0,0,0,0,0,0,0,0,0,0,0,0,0,0,0,0,0,0,0,0,0,0,0,0,0,0,0,0,0,0,0,0,0,0,0,0,0,0,0,0,0,0,0,0,0,0,0,0,0,0,0,0,0,0,0,0,0,0,0,0,0,0,0,0,0,0,0,0,0,0,0,0,0,0,0],"sum_hessian":[1.6512E4,1.4091E4,2.421E3,8.751E3,5.34E3,1.607E3,8.14E2,3.368E3,5.383E3,8.93E2,4.447E3,1.004E3,6.03E2,5.16E2,2.98E2,2.371E3,9.97E2,2.928E3,2.455E3,3.48E2,5.45E2,2.435E3,2.012E3,8.27E2,1.77E2,9.7E1,5.06E2,3.16E2,2E2,1.2E1,2.86E2,1.35E2,2.236E3,7.33E2,2.64E2,2.044E3,8.84E2,9.3E2,1.525E3,4.9E1,2.99E2,4.48E2,9.7E1,1.959E3,4.76E2,4.64E2,1.548E3,5.85E2,2.42E2,9.5E1,8.2E1,2.4E1,7.3E1,4.59E2,4.7E1,5E1,2.66E2,4E0,1.96E2,5E0,7E0,2.84E2,2E0,1.2E1,1.23E2,1.947E3,2.89E2,2.82E2,4.51E2,4.3E1,2.21E2,8.65E2,1.179E3,5E0,8.79E2,6.58E2,2.72E2,1.005E3,5.2E2,4.5E1,4E0,1.73E2,1.26E2,4.4E2,8E0,2.8E1,6.9E1,1.14E3,8.19E2,1.25E2,3.51E2,6.8E1,3.96E2,1.222E3,3.26E2,4.25E2,1.6E2,7.2E1,1.7E2,6.8E1,2.7E1,7.5E1,7E0,8E0,1.6E1,6.7E1,6E0,1.3E1,4.46E2,2E1,2.7E1,1E0,4.9E1,8.2E1,1.84E2,2E0,2E0,1.6E2,3.6E1,3E0,2E0,2E0,5E0,2.8E2,4E0],"tree_param":{"num_deleted":"0","num_feature":"8","num_nodes":"125","size_leaf_vector":"1"}},{"base_weights":[5.650712E-4,-1.1286868E-1,2.5719953E-1,-2.286554E-3,-1.8985781E-1,1.6450879E-1,5.170347E-1,8.129027E-2,-2.2883922E-1,-1.3475144E-1,-2.6239914E-1,3.0996677E-1,5.8800876E-2,3.7632543E-1,6.1760724E-1,6.1137694E-1,3.923743E-2,-1.7706968E-1,-3.9522713E-1,1.0808519E-1,-1.9036736E-1,-1.8307295E-1,-4.9694926E-1,1.13186665E-1,3.985769E-1,1.3506404E-1,-2.848543E-2,3.0244905E-1,6.3054836E-1,6.282536E-1,-2.2538424E-1,3.3118427E-1,8.108736E-1,1.4672446E-1,-1.5382206E-1,-5.333076E-2,-2.2562934E-1,-3.310817E-1,-4.609579E-1,4.2796332E-1,7.282717E-2,-1.1911477E-1,-3.0814582E-1,-5.224374E-2,-3.2812843E-1,-5.0170803E-1,2.7056107E-1,-5.173041E-2,2.3538515E-1,2.7781558E-1,5.866191E-1,-4.8203345E-2,1.9849117E-1,1.1306475E-2,-2.2718355E-1,1.3472758E-1,4.083467E-1,2.5359653E-2,6.474725E-1,6.631613E-1,3.6306968E-1,-4.40699E-2,-0E0,3.9025567E-2,1.4218172E-1,1.5744393E-1,-7.8173146E-2,9.2240416E-2,-5.3798445E-3,1.0251797E-2,-1.09170295E-1,5.9169712E-3,-5.5173684E-2,-2.6617792E-2,-5.6197323E-2,-2.406943E-2,-6.488983E-2,-8.379835E-2,-0E0,-4.1055854E-2,1.1760315E-1,1.5474997E-1,1.044819E-2,1.1752077E-2,-3.2176174E-2,-3.5987493E-2,-7.457093E-2,3.9130107E-2,-2.1760542E-2,-3.268686E-2,-6.568352E-2,-9.287662E-2,-3.0595304E-2,7.178485E-2,-2.5392506E-2,1.6657358E-2,9.174758E-2,1.19193815E-1,4.0563107E-2,1.3905059E-1,8.1498995E-2,-4.741177E-2,7.158462E-3,2.9908953E-2,9.747658E-2,9.038572E-3,-4.2882577E-2,-3.4153335E-2,-1.5919314E-1,-3.3712331E-3,4.63755E-2,1.513463E-1,6.5138794E-2,-0E0,1.0786232E-2,1.1981255E-1,2.2704441E-2,1.2877144E-1,8.56386E-2,4.8305627E-2,1.377113E-1],"categories":[],"categories_nodes":[],"categories_segments":[],"categories_sizes":[],"default_left":[0,0,0,0,0,0,0,0,0,0,0,0,0,0,0,0,0,0,0,0,0,0,0,0,0,0,0,0,0,0,0,0,0,0,0,0,0,0,0,0,0,0,0,0,0,0,0,0,0,0,0,0,0,0,0,0,0,0,0,0,0,0,0,0,0,0,0,0,0,0,0,0,0,0,0,0,0,0,0,0,0,0,0,0,0,0,0,0,0,0,0,0,0,0,0,0,0,0,0,0,0,0,0,0,0,0,0,0,0,0,0,0,0,0,0,0,0,0,0,0,0],"id":7,"left_children":[1,3,5,7,9,11,13,15,17,19,21,23,25,27,29,31,33,35,37,39,41,43,45,47,49,51,53,55,57,59,61,63,65,67,69,71,73,75,77,79,81,83,85,87,89,91,-1,93,95,97,99,101,103,105,107,109,111,113,115,117,119,-1,-1,-1,-1,-1,-1,-1,-1,-1,-1,-1,-1,-1,-1,-1,-1,-1,-1,-1,-1,-1,-1,-1,-1,-1,-1,-1,-1,-1,-1,-1,-1,-1,-1,-1,-1,-1,-1,-1,-1,-1,-1,-1,-1,-1,-1,-1,-1,-1,-1,-1,-1,-1,-1,-1,-1,-1,-1,-1,-1],"loss_changes":[4.8077878E2,9.741496E1,1.2161337E2,8.911378E1,2.6802582E1,5.7258377E1,1.8270752E1,7.6304245E1,1.0661636E1,5.1904373E1,5.3815384E1,2.7145493E1,1.445302E1,9.982079E0,7.1926575E0,1.3442329E1,6.6081535E1,5.7193127E0,8.4801865E-1,7.8499413E0,2.6043564E1,4.1153748E1,7.1414795E0,9.947776E0,2.4095398E1,1.3521381E1,8.050748E0,7.4767723E0,1.0028305E0,6.5043945E0,2.2687137E-2,5.103964E0,1.1011314E1,1.3109601E2,1.0769653E2,6.089699E0,4.420044E0,6.239643E-1,7.0858E-3,1.0373718E1,7.2639585E0,2.1056902E1,1.3036552E1,2.0870066E1,4.998192E0,2.3730774E0,0E0,8.179291E0,1.0735947E1,1.3093857E1,9.695984E0,5.650222E0,9.436817E0,7.9684157E0,3.7486563E0,3.2686706E0,4.8374557E0,1.0244906E-2,5.1740646E-1,5.420532E0,2.975254E0,0E0,0E0,0E0,0E0,0E0,0E0,0E0,0E0,0E0,0E0,0E0,0E0,0E0,0E0,0E0,0E0,0E0,0E0,0E0,0E0,0E0,0E0,0E0,0E0,0E0,0E0,0E0,0E0,0E0,0E0,0E0,0E0,0E0,0E0,0E0,0E0,0E0,0E0,0E0,0E0,0E0,0E0,0E0,0E0,0E0,0E0,0E0,0E0,0E0,0E0,0E0,0E0,0E0,0E0,0E0,0E0,0E0,0E0,0E0,0E0],"parents":[2147483647,0,0,1,1,2,2,3,3,4,4,5,5,6,6,7,7,8,8,9,9,10,10,11,11,12,12,13,13,14,14,15,15,16,16,17,17,18,18,19,19,20,20,21,21,22,22,23,23,24,24,25,25,26,26,27,27,28,28,29,29,30,30,31,31,32,32,33,33,34,34,35,35,36,36,37,37,38,38,39,39,40,40,41,41,42,42,43,43,44,44,45,45,47,47,48,48,49,49,50,50,51,51,52,52,53,53,54,54,55,55,56,56,57,57,58,58,59,59,60,60],"right_children":[2,4,6,8,10,12,14,16,18,20,22,24,26,28,30,32,34,36,38,40,42,44,46,48,50,52,54,56,58,60,62,64,66,68,70,72,74,76,78,80,82,84,86,88,90,92,-1,94,96,98,100,102,104,106,108,110,112,114,116,118,120,-1,-1,-1,-1,-1,-1,-1,-1,-1,-1,-1,-1,-1,-1,-1,-1,-1,-1,-1,-1,-1,-1,-1,-1,-1,-1,-1,-1,-1,-1,-1,-1,-1,-1,-1,-1,-1,-1,-1,-1,-1,-1,-1,-1,-1,-1,-1,-1,-1,-1,-1,-1,-1,-1,-1,-1,-1,-1,-1,-1],"split_conditions":[4.4211E0,2.647482E0,6.5095E0,3.794E1,3.468E1,2.7457628E0,2.2E1,-1.2232E2,3.941E1,-1.1829E2,-1.2017E2,2.2E1,3.1413794E0,8.7471E0,-1.1717E2,3.777E1,3.451E1,-1.2226E2,2.5E1,-1.1921E2,-1.178E2,3.792E1,2.5636364E1,1.106E3,1.0448431E0,9.909091E-1,-1.1762E2,1.0094192E0,8.5714287E-1,3.15E0,3.3E1,-1.2239E2,-1.2239E2,-1.183E2,-1.2059E2,3.876E1,2.7E1,-1.237E2,2.134E3,-1.2042E2,2.71E2,3.1170213E0,3.369E1,-1.2224E2,-1.2242E2,1.4615384E0,2.7056107E-1,-1.2202E2,1.0894309E0,-1.2232E2,3.414E1,2.2E1,3.9E1,3.78E1,-1.1667E2,1.207E3,6.12E2,5E0,-1.1706E2,3.761E1,1.05144E1,-4.40699E-2,-0E0,3.9025567E-2,1.4218172E-1,1.5744393E-1,-7.8173146E-2,9.2240416E-2,-5.3798445E-3,1.0251797E-2,-1.09170295E-1,5.9169712E-3,-5.5173684E-2,-2.6617792E-2,-5.6197323E-2,-2.406943E-2,-6.488983E-2,-8.379835E-2,-0E0,-4.1055854E-2,1.1760315E-1,1.5474997E-1,1.044819E-2,1.1752077E-2,-3.2176174E-2,-3.5987493E-2,-7.457093E-2,3.9130107E-2,-2.1760542E-2,-3.268686E-2,-6.568352E-2,-9.287662E-2,-3.0595304E-2,7.178485E-2,-2.5392506E-2,1.6657358E-2,9.174758E-2,1.19193815E-1,4.0563107E-2,1.3905059E-1,8.1498995E-2,-4.741177E-2,7.158462E-3,2.9908953E-2,9.747658E-2,9.038572E-3,-4.2882577E-2,-3.4153335E-2,-1.5919314E-1,-3.3712331E-3,4.63755E-2,1.513463E-1,6.5138794E-2,-0E0,1.0786232E-2,1.1981255E-1,2.2704441E-2,1.2877144E-1,8.56386E-2,4.8305627E-2,1.377113E-1],"split_indices":[0,5,0,6,6,5,1,7,6,7,7,1,5,0,7,6,6,7,1,7,7,6,3,4,3,3,7,3,3,5,1,7,7,7,7,6,1,7,4,7,4,5,6,7,7,3,0,7,3,7,6,1,1,6,7,4,4,1,7,6,0,0,0,0,0,0,0,0,0,0,0,0,0,0,0,0,0,0,0,0,0,0,0,0,0,0,0,0,0,0,0,0,0,0,0,0,0,0,0,0,0,0,0,0,0,0,0,0,0,0,0,0,0,0,0,0,0,0,0,0,0],"split_type":[0,0,0,0,0,0,0,0,0,0,0,0,0,0,0,0,0,0,0,0,0,0,0,0,0,0,0,0,0,0,0,0,0,0,0,0,0,0,0,0,0,0,0,0,0,0,0,0,0,0,0,0,0,0,0,0,0,0,0,0,0,0,0,0,0,0,0,0,0,0,0,0,0,0,0,0,0,0,0,0,0,0,0,0,0,0,0,0,0,0,0,0,0,0,0,0,0,0,0,0,0,0,0,0,0,0,0,0,0,0,0,0,0,0,0,0,0,0,0,0,0],"sum_hessian":[1.6512E4,1.145E4,5.062E3,4.702E3,6.748E3,3.733E3,1.329E3,3.434E3,1.268E3,3.839E3,2.909E3,1.569E3,2.164E3,5.57E2,7.72E2,2.51E2,3.183E3,9.7E2,2.98E2,7.14E2,3.125E3,2.176E3,7.33E2,4.89E2,1.08E3,1.157E3,1.007E3,4.34E2,1.23E2,7.63E2,9E0,1.06E2,1.45E2,2.046E3,1.137E3,2.76E2,6.94E2,1.56E2,1.42E2,6.9E1,6.45E2,1.95E3,1.175E3,1.146E3,1.03E3,7.32E2,1E0,2.07E2,2.82E2,6.6E2,4.2E2,2.96E2,8.61E2,8.38E2,1.69E2,1.7E2,2.64E2,4E0,1.19E2,6.72E2,9.1E1,8E0,1E0,8.6E1,2E1,1.39E2,6E0,6.7E2,1.376E3,7.74E2,3.63E2,2.05E2,7.1E1,3.63E2,3.31E2,2.1E1,1.35E2,1.41E2,1E0,1.7E1,5.2E1,1.1E1,6.34E2,4.69E2,1.481E3,5.74E2,6.01E2,2.3E2,9.16E2,1.98E2,8.32E2,7.07E2,2.5E1,3.3E1,1.74E2,1.86E2,9.6E1,8E1,5.8E2,1.78E2,2.42E2,8.7E1,2.09E2,7.86E2,7.5E1,7.27E2,1.11E2,1.61E2,8E0,7.4E1,9.6E1,2.5E1,2.39E2,1E0,3E0,1.15E2,4E0,5.34E2,1.38E2,7.5E1,1.6E1],"tree_param":{"num_deleted":"0","num_feature":"8","num_nodes":"121","size_leaf_vector":"1"}},{"base_weights":[5.4558174E-4,-6.6623814E-2,3.0326575E-1,-1.4679334E-1,3.2480218E-2,2.1838151E-1,4.705199E-1,-8.5203186E-2,-2.1462652E-1,1.7389983E-1,-5.2687444E-2,3.132621E-1,9.160459E-2,5.0511235E-1,2.2632891E-1,1.6863377E-1,-1.5796986E-1,-8.030684E-2,-3.2982606E-1,2.3108475E-1,-8.330722E-2,-2.0118106E-2,-1.9653328E-1,3.6661187E-1,4.1585263E-2,1.1502282E-1,-1.23663686E-1,5.2024615E-1,-9.3280874E-2,4.9858767E-1,-5.567697E-2,1.0524718E0,1.4334002E-1,-1.3955836E-1,-5.213904E-1,1.7043155E-2,-3.1921145E-1,-3.7425914E-1,-2.105931E-1,2.6744282E-1,-3.3639255E-1,6.1289616E-2,-1.4904581E-1,4.276189E-3,-2.2872227E-1,-5.04857E-2,-3.5465288E-1,4.1781113E-1,-1.6773388E-2,1.6011503E-1,-4.9521193E-1,1.01230875E-1,6.7701125E-1,-3.934248E-1,-5.8980238E-2,4.059506E-1,5.84761E-1,4.480905E-2,-2.033405E-1,6.105988E-1,1.955138E-1,1.0249805E-1,-2.463199E-1,2.6448613E-1,1.0602859E-1,4.848715E-2,6.07673E-3,-7.61893E-3,-3.596019E-2,-6.422165E-2,-1.05160095E-1,4.56556E-2,-1.069769E-2,-4.4036895E-2,-6.4790495E-2,-5.5535685E-2,-8.200828E-2,-3.9162528E-2,2.4256772E-1,1.10709466E-1,4.0535875E-2,-9.568085E-2,-3.800403E-2,-2.4019731E-2,4.770862E-2,-3.0485926E-2,5.8056828E-2,6.0431734E-2,-2.5568118E-3,-5.7427302E-2,-4.3903524E-3,-3.4454063E-2,3.764774E-2,1.5868992E-1,-6.684258E-2,6.757729E-2,1.3071531E-1,7.3565505E-2,-3.670241E-2,-3.6269013E-2,5.087422E-2,-1.15237296E-1,-0E0,-5.1227636E-3,2.3966368E-2,1.9167125E-2,1.8233788E-1,-8.6789005E-2,-0E0,-2.4744302E-2,9.548285E-3,4.677515E-2,1.0307514E-1,1.1295252E-1,6.7983024E-2,-4.054694E-2,3.710549E-2,-4.780523E-2,2.008226E-2,1.9210522E-1,9.090965E-2,9.9715136E-2,-4.2969556E-4,-1.508223E-2,7.3269464E-2,-8.8062346E-2,-1.1980897E-2],"categories":[],"categories_nodes":[],"categories_segments":[],"categories_sizes":[],"default_left":[0,0,0,0,0,0,0,0,0,0,0,0,0,0,0,0,0,0,0,0,0,0,0,0,0,0,0,0,0,0,0,0,0,0,0,0,0,0,0,0,0,0,0,0,0,0,0,0,0,0,0,0,0,0,0,0,0,0,0,0,0,0,0,0,0,0,0,0,0,0,0,0,0,0,0,0,0,0,0,0,0,0,0,0,0,0,0,0,0,0,0,0,0,0,0,0,0,0,0,0,0,0,0,0,0,0,0,0,0,0,0,0,0,0,0,0,0,0,0,0,0,0,0,0,0,0,0],"id":8,"left_children":[1,3,5,7,9,11,13,15,17,19,21,23,25,27,29,31,33,35,37,39,41,43,45,47,49,51,53,55,57,59,61,63,65,67,69,71,73,75,77,79,81,83,85,87,89,91,93,95,97,99,101,103,105,107,109,111,113,115,117,119,121,123,125,-1,-1,-1,-1,-1,-1,-1,-1,-1,-1,-1,-1,-1,-1,-1,-1,-1,-1,-1,-1,-1,-1,-1,-1,-1,-1,-1,-1,-1,-1,-1,-1,-1,-1,-1,-1,-1,-1,-1,-1,-1,-1,-1,-1,-1,-1,-1,-1,-1,-1,-1,-1,-1,-1,-1,-1,-1,-1,-1,-1,-1,-1,-1,-1],"loss_changes":[3.3586646E2,1.0741489E2,4.2252655E1,3.1093903E1,7.2821465E1,2.3796753E1,8.152527E0,7.243568E1,5.4800003E1,3.3498314E1,1.7576925E1,1.632592E1,4.3214493E0,8.172607E0,9.995463E0,1.8949121E1,2.0097046E1,3.832346E1,9.844437E0,3.843338E1,3.9632082E0,1.5741731E1,1.5855389E1,1.8798347E1,1.1943382E1,5.6539545E0,1.2568352E0,5.789856E0,3.9686486E-1,1.8401394E0,1.9651351E0,3.1143608E0,1.1481426E1,1.6598404E1,9.3377686E-1,2.0951136E1,1.1054955E0,6.9861603E0,4.3458576E0,2.5840752E1,2.353695E0,5.081427E0,2.567871E0,1.6804138E1,5.7133865E0,1.3117051E1,5.9208374E0,1.0786606E1,8.769089E0,6.8496256E0,2.5506277E0,3.0882287E0,2.8450813E0,6.441548E-1,6.3298386E-1,7.162796E0,3.8878784E0,4.0355515E-1,3.4112364E-1,1.301199E0,1.5940087E0,2.039258E0,1.0544294E0,0E0,0E0,0E0,0E0,0E0,0E0,0E0,0E0,0E0,0E0,0E0,0E0,0E0,0E0,0E0,0E0,0E0,0E0,0E0,0E0,0E0,0E0,0E0,0E0,0E0,0E0,0E0,0E0,0E0,0E0,0E0,0E0,0E0,0E0,0E0,0E0,0E0,0E0,0E0,0E0,0E0,0E0,0E0,0E0,0E0,0E0,0E0,0E0,0E0,0E0,0E0,0E0,0E0,0E0,0E0,0E0,0E0,0E0,0E0,0E0,0E0,0E0,0E0,0E0],"parents":[2147483647,0,0,1,1,2,2,3,3,4,4,5,5,6,6,7,7,8,8,9,9,10,10,11,11,12,12,13,13,14,14,15,15,16,16,17,17,18,18,19,19,20,20,21,21,22,22,23,23,24,24,25,25,26,26,27,27,28,28,29,29,30,30,31,31,32,32,33,33,34,34,35,35,36,36,37,37,38,38,39,39,40,40,41,41,42,42,43,43,44,44,45,45,46,46,47,47,48,48,49,49,50,50,51,51,52,52,53,53,54,54,55,55,56,56,57,57,58,58,59,59,60,60,61,61,62,62],"right_children":[2,4,6,8,10,12,14,16,18,20,22,24,26,28,30,32,34,36,38,40,42,44,46,48,50,52,54,56,58,60,62,64,66,68,70,72,74,76,78,80,82,84,86,88,90,92,94,96,98,100,102,104,106,108,110,112,114,116,118,120,122,124,126,-1,-1,-1,-1,-1,-1,-1,-1,-1,-1,-1,-1,-1,-1,-1,-1,-1,-1,-1,-1,-1,-1,-1,-1,-1,-1,-1,-1,-1,-1,-1,-1,-1,-1,-1,-1,-1,-1,-1,-1,-1,-1,-1,-1,-1,-1,-1,-1,-1,-1,-1,-1,-1,-1,-1,-1,-1,-1,-1,-1,-1,-1,-1,-1],"split_conditions":[5.2713E0,3.3427E0,6.9343E0,3.535E1,2.6171448E0,2.9444444E0,-1.1773E2,-1.183E2,-1.2162E2,3.79E1,-1.178E2,-1.178E2,3.7391305E0,3.816E1,3.355E1,1.5668104E0,-1.1643E2,3.868E1,5.5530305E0,-1.1715E2,-1.2239E2,3.844E1,3.369E1,3.796E1,3.386E1,3.9E1,8.73E2,1.0072993E0,2.4919918E0,-1.1712E2,1.2E1,6.86E2,3.417E1,3.388E1,-1.1617E2,-1.2236E2,-1.2317E2,-1.2066E2,2.5636364E1,-1.2229E2,8.79E2,-1.2261E2,1.8793522E1,-1.2244E2,-1.2125E2,3.301E1,1.03E2,1.1025641E0,-1.2239E2,6.0815787E0,7.912245E0,9.7402596E-1,6.31677E0,1.2727273E0,6.0086E0,8.4411E0,3.768E1,7.6659E0,1.1072088E0,7.3518E0,1.4E1,8E0,2.9946237E0,2.6448613E-1,1.0602859E-1,4.848715E-2,6.07673E-3,-7.61893E-3,-3.596019E-2,-6.422165E-2,-1.05160095E-1,4.56556E-2,-1.069769E-2,-4.4036895E-2,-6.4790495E-2,-5.5535685E-2,-8.200828E-2,-3.9162528E-2,2.4256772E-1,1.10709466E-1,4.0535875E-2,-9.568085E-2,-3.800403E-2,-2.4019731E-2,4.770862E-2,-3.0485926E-2,5.8056828E-2,6.0431734E-2,-2.5568118E-3,-5.7427302E-2,-4.3903524E-3,-3.4454063E-2,3.764774E-2,1.5868992E-1,-6.684258E-2,6.757729E-2,1.3071531E-1,7.3565505E-2,-3.670241E-2,-3.6269013E-2,5.087422E-2,-1.15237296E-1,-0E0,-5.1227636E-3,2.3966368E-2,1.9167125E-2,1.8233788E-1,-8.6789005E-2,-0E0,-2.4744302E-2,9.548285E-3,4.677515E-2,1.0307514E-1,1.1295252E-1,6.7983024E-2,-4.054694E-2,3.710549E-2,-4.780523E-2,2.008226E-2,1.9210522E-1,9.090965E-2,9.9715136E-2,-4.2969556E-4,-1.508223E-2,7.3269464E-2,-8.8062346E-2,-1.1980897E-2],"split_indices":[0,0,0,6,5,5,7,7,7,6,7,7,5,6,6,5,7,6,2,7,7,6,6,6,6,1,4,3,5,7,1,4,6,6,7,7,7,7,3,7,4,7,2,7,7,6,4,3,7,2,2,3,2,3,0,0,6,0,3,0,1,0,5,0,0,0,0,0,0,0,0,0,0,0,0,0,0,0,0,0,0,0,0,0,0,0,0,0,0,0,0,0,0,0,0,0,0,0,0,0,0,0,0,0,0,0,0,0,0,0,0,0,0,0,0,0,0,0,0,0,0,0,0,0,0,0,0],"split_type":[0,0,0,0,0,0,0,0,0,0,0,0,0,0,0,0,0,0,0,0,0,0,0,0,0,0,0,0,0,0,0,0,0,0,0,0,0,0,0,0,0,0,0,0,0,0,0,0,0,0,0,0,0,0,0,0,0,0,0,0,0,0,0,0,0,0,0,0,0,0,0,0,0,0,0,0,0,0,0,0,0,0,0,0,0,0,0,0,0,0,0,0,0,0,0,0,0,0,0,0,0,0,0,0,0,0,0,0,0,0,0,0,0,0,0,0,0,0,0,0,0,0,0,0,0,0,0],"sum_hessian":[1.6512E4,1.3513E4,2.999E3,7.472E3,6.041E3,1.992E3,1.007E3,3.92E3,3.552E3,2.272E3,3.769E3,1.137E3,8.55E2,8.8E2,1.27E2,8.72E2,3.048E3,1.642E3,1.91E3,1.86E3,4.12E2,3.076E3,6.93E2,9.49E2,1.88E2,7.73E2,8.2E1,8.59E2,2.1E1,6.5E1,6.2E1,2.3E1,8.49E2,2.903E3,1.45E2,1.166E3,4.76E2,1.388E3,5.22E2,1.749E3,1.11E2,1.27E2,2.85E2,2.753E3,3.23E2,3.62E2,3.31E2,8.38E2,1.11E2,1.55E2,3.3E1,7.56E2,1.7E1,1.4E1,6.8E1,3.14E2,5.45E2,8E0,1.3E1,4.6E1,1.9E1,3.3E1,2.9E1,1.1E1,1.2E1,3.96E2,4.53E2,1.097E3,1.806E3,4.1E1,1.04E2,2.86E2,8.8E2,1.65E2,3.11E2,7.5E2,6.38E2,5.21E2,1E0,1.95E2,1.554E3,4.2E1,6.9E1,6.4E1,6.3E1,2.75E2,1E1,1.46E2,2.607E3,2.24E2,9.9E1,2.36E2,1.26E2,3E0,3.28E2,7.33E2,1.05E2,3.3E1,7.8E1,3.8E1,1.17E2,2.6E1,7E0,1.44E2,6.12E2,7E0,1E1,1.2E1,2E0,4.2E1,2.6E1,1.67E2,1.47E2,4.57E2,8.8E1,2E0,6E0,1.2E1,1E0,7E0,3.9E1,7E0,1.2E1,2E1,1.3E1,1.1E1,1.8E1],"tree_param":{"num_deleted":"0","num_feature":"8","num_nodes":"127","size_leaf_vector":"1"}},{"base_weights":[5.064813E-4,-1.0224801E-1,1.3839726E-1,-4.4040743E-2,-1.7237759E-1,6.9288805E-2,3.0110008E-1,6.280116E-2,-1.1882748E-1,-1.4939602E-1,-3.0030313E-1,2.997044E-1,2.9314058E-2,2.2250092E-1,4.0978402E-1,4.200484E-1,-1.9062495E-2,-7.2087996E-2,-3.9779642E-1,-8.108063E-2,-2.3324785E-1,-2.4370998E-1,-4.2683682E-1,-0E0,3.9527416E-1,2.3334357E-1,2.2597918E-3,1.8838964E-1,4.874308E-1,-4.9010925E-2,4.2592627E-1,7.3621815E-1,9.559108E-2,4.7139846E-2,-2.020344E-1,9.9688575E-2,-1.6772199E-1,-3.4932575E-1,-6.6086406E-1,-1.5929228E-1,1.3120068E-2,-1.14450835E-1,-3.1272444E-1,-1.922107E-1,-4.5200357E-1,-2.9660517E-1,-8.395045E-2,-4.500217E-2,5.9487027E-1,5.902843E-1,2.2850575E-1,7.340911E-1,1.426418E-1,6.5335505E-2,-9.994929E-2,4.1158578E-1,1.5597789E-1,4.9795783E-1,-0E0,4.0527862E-1,-2.4733068E-1,3.9508605E-1,6.7959493E-1,1.6490923E-1,6.253202E-2,9.073277E-2,-0E0,4.8890255E-2,-4.7280174E-3,-2.9724281E-2,-9.8602206E-2,7.0775926E-2,3.776598E-3,-2.2867912E-2,-5.2923616E-2,-1.0222593E-1,-5.153621E-2,-7.7849716E-2,-1.43901E-1,1.4170071E-1,-3.1212758E-2,1.585736E-2,-2.6569013E-2,1.1437211E-2,-3.836395E-2,-6.0056243E-2,-2.2983987E-2,-5.1921118E-2,-1.7291348E-2,-0E0,-8.387241E-2,-0E0,-5.4878566E-2,-3.3258792E-2,1.9040536E-2,2.5201643E-1,3.699505E-2,1.8939857E-1,8.9094505E-2,6.643863E-2,-5.3067114E-3,1.5785463E-1,7.167911E-2,3.2169115E-2,-7.762776E-2,5.075135E-2,-3.3233203E-3,-2.123754E-3,-1.1329162E-1,1.2792614E-1,3.0110715E-2,4.175833E-2,-2.5840672E-3,-0E0,9.1013886E-2,-1.54084E-2,1.3356756E-1,-8.13248E-2,8.445424E-2,1.2361705E-1,6.5888084E-2,1.2734082E-1,1.2742726E-2],"categories":[],"categories_nodes":[],"categories_segments":[],"categories_sizes":[],"default_left":[0,0,0,0,0,0,0,0,0,0,0,0,0,0,0,0,0,0,0,0,0,0,0,0,0,0,0,0,0,0,0,0,0,0,0,0,0,0,0,0,0,0,0,0,0,0,0,0,0,0,0,0,0,0,0,0,0,0,0,0,0,0,0,0,0,0,0,0,0,0,0,0,0,0,0,0,0,0,0,0,0,0,0,0,0,0,0,0,0,0,0,0,0,0,0,0,0,0,0,0,0,0,0,0,0,0,0,0,0,0,0,0,0,0,0,0,0,0,0,0,0,0,0],"id":9,"left_children":[1,3,5,7,9,11,13,15,17,19,21,23,25,27,29,31,33,35,37,39,41,43,45,47,49,51,53,55,57,59,61,63,65,67,69,71,73,75,77,79,81,83,85,87,89,91,-1,93,95,97,99,101,103,105,107,109,111,113,-1,115,117,119,121,-1,-1,-1,-1,-1,-1,-1,-1,-1,-1,-1,-1,-1,-1,-1,-1,-1,-1,-1,-1,-1,-1,-1,-1,-1,-1,-1,-1,-1,-1,-1,-1,-1,-1,-1,-1,-1,-1,-1,-1,-1,-1,-1,-1,-1,-1,-1,-1,-1,-1,-1,-1,-1,-1,-1,-1,-1,-1,-1,-1],"loss_changes":[2.3399164E2,3.853241E1,7.914754E1,4.136673E1,1.2403343E1,4.548884E1,1.764E1,6.241291E1,3.9515377E1,2.0712029E1,4.3232536E0,2.0880905E1,2.3220272E1,1.072773E1,6.665039E0,4.0437904E1,2.1042229E1,4.292664E1,5.0041275E0,1.4856046E1,1.5209793E1,4.549818E0,5.5529404E-1,4.8477697E0,1.760048E1,2.1972673E1,2.4043737E1,7.593464E0,6.850281E-1,2.6963859E0,6.043167E0,1.2967529E1,7.6654053E0,2.0830929E1,5.6632214E0,2.1242565E1,8.480499E0,4.7277756E0,1.3141251E0,1.3362686E1,1.0807473E1,1.1420101E1,3.2082596E0,3.1778479E0,4.5767212E-1,9.05571E-2,0E0,3.4930072E0,3.1552835E0,1.0408119E1,1.0856841E1,2.7409782E0,8.324744E0,4.163033E1,6.567221E1,9.399075E0,1.2152164E1,3.5588455E-1,0E0,1.7168313E0,3.2804508E0,6.270859E0,9.539757E-1,0E0,0E0,0E0,0E0,0E0,0E0,0E0,0E0,0E0,0E0,0E0,0E0,0E0,0E0,0E0,0E0,0E0,0E0,0E0,0E0,0E0,0E0,0E0,0E0,0E0,0E0,0E0,0E0,0E0,0E0,0E0,0E0,0E0,0E0,0E0,0E0,0E0,0E0,0E0,0E0,0E0,0E0,0E0,0E0,0E0,0E0,0E0,0E0,0E0,0E0,0E0,0E0,0E0,0E0,0E0,0E0,0E0,0E0,0E0,0E0],"parents":[2147483647,0,0,1,1,2,2,3,3,4,4,5,5,6,6,7,7,8,8,9,9,10,10,11,11,12,12,13,13,14,14,15,15,16,16,17,17,18,18,19,19,20,20,21,21,22,22,23,23,24,24,25,25,26,26,27,27,28,28,29,29,30,30,31,31,32,32,33,33,34,34,35,35,36,36,37,37,38,38,39,39,40,40,41,41,42,42,43,43,44,44,45,45,47,47,48,48,49,49,50,50,51,51,52,52,53,53,54,54,55,55,56,56,57,57,59,59,60,60,61,61,62,62],"right_children":[2,4,6,8,10,12,14,16,18,20,22,24,26,28,30,32,34,36,38,40,42,44,46,48,50,52,54,56,58,60,62,64,66,68,70,72,74,76,78,80,82,84,86,88,90,92,-1,94,96,98,100,102,104,106,108,110,112,114,-1,116,118,120,122,-1,-1,-1,-1,-1,-1,-1,-1,-1,-1,-1,-1,-1,-1,-1,-1,-1,-1,-1,-1,-1,-1,-1,-1,-1,-1,-1,-1,-1,-1,-1,-1,-1,-1,-1,-1,-1,-1,-1,-1,-1,-1,-1,-1,-1,-1,-1,-1,-1,-1,-1,-1,-1,-1,-1,-1,-1,-1,-1,-1],"split_conditions":[3.8393E0,2.8965516E0,5.826E0,3.444E1,-1.1749E2,2.2777777E0,2.7E1,-1.1835E2,-1.1985E2,3.486E1,3.4E1,1.7E1,-1.222E2,9.281E0,1.68E2,3.416E1,-1.1715E2,3.781E1,3.3182E0,3.403E1,-1.2149E2,-1.1667E2,-1.1737E2,1.3356165E0,3.416E1,3.761E1,3.451E1,-1.2202E2,1.1415929E1,8.7945205E-1,1.1072088E0,-1.1837E2,-1.195E2,3.375E1,-1.1617E2,-1.2228E2,3.941E1,2.2777777E0,1.8E1,-1.1839E2,4.0596094E0,3.773E1,6.155294E0,3.276E1,9.0967745E-1,8.941E-1,-8.395045E-2,1.316E3,1.4615384E0,-1.1842E2,-1.2201E2,5.0947E0,3.868E1,-1.1827E2,-1.1996E2,3.767E1,3.461E1,3.28E1,-0E0,4.805646E0,1.2727273E0,-1.2232E2,3.799E1,1.6490923E-1,6.253202E-2,9.073277E-2,-0E0,4.8890255E-2,-4.7280174E-3,-2.9724281E-2,-9.8602206E-2,7.0775926E-2,3.776598E-3,-2.2867912E-2,-5.2923616E-2,-1.0222593E-1,-5.153621E-2,-7.7849716E-2,-1.43901E-1,1.4170071E-1,-3.1212758E-2,1.585736E-2,-2.6569013E-2,1.1437211E-2,-3.836395E-2,-6.0056243E-2,-2.2983987E-2,-5.1921118E-2,-1.7291348E-2,-0E0,-8.387241E-2,-0E0,-5.4878566E-2,-3.3258792E-2,1.9040536E-2,2.5201643E-1,3.699505E-2,1.8939857E-1,8.9094505E-2,6.643863E-2,-5.3067114E-3,1.5785463E-1,7.167911E-2,3.2169115E-2,-7.762776E-2,5.075135E-2,-3.3233203E-3,-2.123754E-3,-1.1329162E-1,1.2792614E-1,3.0110715E-2,4.175833E-2,-2.5840672E-3,-0E0,9.1013886E-2,-1.54084E-2,1.3356756E-1,-8.13248E-2,8.445424E-2,1.2361705E-1,6.5888084E-2,1.2734082E-1,1.2742726E-2],"split_indices":[0,5,0,6,7,5,1,7,7,6,6,1,7,0,4,6,7,6,0,6,7,7,7,3,6,6,6,7,2,3,3,7,7,6,7,7,6,5,1,7,5,6,2,6,3,0,0,4,3,7,7,0,6,7,7,6,6,6,0,2,3,7,6,0,0,0,0,0,0,0,0,0,0,0,0,0,0,0,0,0,0,0,0,0,0,0,0,0,0,0,0,0,0,0,0,0,0,0,0,0,0,0,0,0,0,0,0,0,0,0,0,0,0,0,0,0,0,0,0,0,0,0,0],"split_type":[0,0,0,0,0,0,0,0,0,0,0,0,0,0,0,0,0,0,0,0,0,0,0,0,0,0,0,0,0,0,0,0,0,0,0,0,0,0,0,0,0,0,0,0,0,0,0,0,0,0,0,0,0,0,0,0,0,0,0,0,0,0,0,0,0,0,0,0,0,0,0,0,0,0,0,0,0,0,0,0,0,0,0,0,0,0,0,0,0,0,0,0,0,0,0,0,0,0,0,0,0,0,0,0,0,0,0,0,0,0,0,0,0,0,0,0,0,0,0,0,0,0,0],"sum_hessian":[1.6512E4,9.46E3,7.052E3,5.173E3,4.287E3,4.952E3,2.1E3,2.128E3,3.045E3,3.638E3,6.49E2,7.3E2,4.222E3,1.222E3,8.78E2,3.97E2,1.731E3,2.61E3,4.35E2,2.008E3,1.63E3,4.52E2,1.97E2,1.77E2,5.53E2,4.92E2,3.73E3,1.085E3,1.37E2,2.9E1,8.49E2,2E2,1.97E2,1.27E3,4.61E2,9.32E2,1.678E3,3.7E2,6.5E1,1.099E3,9.09E2,6.56E2,9.74E2,3.65E2,8.7E1,4.7E1,1.5E2,1.65E2,1.2E1,2.53E2,3E2,7.4E1,4.18E2,2.309E3,1.421E3,1.35E2,9.5E2,1.34E2,3E0,8E0,2.1E1,7.6E2,8.9E1,1.37E2,6.3E1,3.7E1,1.6E2,3.15E2,9.55E2,4.17E2,4.4E1,1.97E2,7.35E2,1.262E3,4.16E2,8.3E1,2.87E2,2.6E1,3.9E1,1.4E1,1.085E3,6.22E2,2.87E2,2.31E2,4.25E2,8.82E2,9.2E1,1.82E2,1.83E2,2E0,8.5E1,1E0,4.6E1,8.7E1,7.8E1,3E0,9E0,4.3E1,2.1E2,1.96E2,1.04E2,5.1E1,2.3E1,3.95E2,2.3E1,6.48E2,1.661E3,1.218E3,2.03E2,6E1,7.5E1,6.62E2,2.88E2,1E0,1.33E2,3E0,5E0,1.7E1,4E0,7.2E1,6.88E2,8.5E1,4E0],"tree_param":{"num_deleted":"0","num_feature":"8","num_nodes":"123","size_leaf_vector":"1"}},{"base_weights":[4.6105735E-4,-4.8581325E-2,1.951903E-1,-5.9384704E-3,-1.3638675E-1,1.3792847E-1,3.2631382E-1,7.978738E-2,-7.5696155E-2,-1.1286547E-1,-2.4548124E-1,3.631907E-1,1.0280754E-1,3.534009E-1,1.3471437E-1,3.8049638E-1,1.1757428E-2,3.0282253E-2,-2.0606357E-1,-1.3915609E-1,-2.233481E-2,-2.225292E-1,-4.0493965E-1,-7.2709724E-2,4.367022E-1,8.9006245E-2,5.451334E-1,3.64919E-1,-9.6836545E-2,3.5495093E-1,-9.168627E-2,7.19126E-1,1.2921664E-1,9.468453E-2,-1.1210502E-1,3.223515E-1,-5.1432684E-2,-1.3697678E-1,-3.6789802E-1,-3.701878E-2,-1.6961507E-1,2.504909E-2,-1.1533887E-1,-1.521197E-1,-2.8807035E-1,-1.5104029E-1,-4.36622E-1,-1.3648835E-1,4.0691954E-1,5.070457E-1,7.085481E-2,1.1126471E-1,-1.5332675E-1,7.14585E-1,2.2948688E-1,2.892027E-1,4.2393884E-1,-1.5427652E-1,3.725585E-2,4.4367746E-1,1.1245203E-1,-5.294273E-2,-1.4237E-1,1.1374381E-1,1.7267862E-1,1.01232775E-1,6.4787944E-3,6.340272E-2,9.060045E-3,-5.5302895E-4,-7.6257534E-2,1.18010715E-1,4.3988764E-2,1.4867809E-2,-2.8578427E-2,3.4255166E-2,-3.2431234E-2,-5.2439656E-2,-9.945623E-2,4.544289E-3,-3.6963668E-2,-1.9749442E-2,-4.813812E-2,-1.042359E-4,3.1982083E-2,2.0167015E-3,-3.7427124E-2,-4.7745977E-2,-4.7184774E-3,-3.5948582E-2,-6.08316E-2,-3.23091E-2,-0E0,-0E0,-8.11933E-2,-5.6749504E-2,4.9251383E-3,1.2150543E-1,-2.1500532E-2,5.1910162E-2,1.0761878E-1,7.797973E-2,-2.6735408E-2,-1.0842347E-2,2.5225477E-2,-1.1423754E-2,-9.033086E-2,2.3892974E-2,1.506676E-1,-5.091536E-3,7.1737505E-2,3.2472704E-2,7.519727E-2,8.3449714E-2,4.4284277E-2,-0E0,-4.439205E-2,1.5184757E-1,6.3199975E-2,7.426938E-2,-8.267009E-3,-2.0595692E-2,4.9816296E-2],"categories":[],"categories_nodes":[],"categories_segments":[],"categories_sizes":[],"default_left":[0,0,0,0,0,0,0,0,0,0,0,0,0,0,0,0,0,0,0,0,0,0,0,0,0,0,0,0,0,0,0,0,0,0,0,0,0,0,0,0,0,0,0,0,0,0,0,0,0,0,0,0,0,0,0,0,0,0,0,0,0,0,0,0,0,0,0,0,0,0,0,0,0,0,0,0,0,0,0,0,0,0,0,0,0,0,0,0,0,0,0,0,0,0,0,0,0,0,0,0,0,0,0,0,0,0,0,0,0,0,0,0,0,0,0,0,0,0,0,0,0,0,0],"id":10,"left_children":[1,3,5,7,9,11,13,15,17,19,21,23,25,27,29,31,33,35,37,39,41,43,45,47,49,51,53,55,57,59,61,63,65,67,69,71,73,75,77,79,81,83,85,87,89,91,93,95,97,99,101,103,105,107,109,111,113,115,-1,117,119,121,-1,-1,-1,-1,-1,-1,-1,-1,-1,-1,-1,-1,-1,-1,-1,-1,-1,-1,-1,-1,-1,-1,-1,-1,-1,-1,-1,-1,-1,-1,-1,-1,-1,-1,-1,-1,-1,-1,-1,-1,-1,-1,-1,-1,-1,-1,-1,-1,-1,-1,-1,-1,-1,-1,-1,-1,-1,-1,-1,-1,-1],"loss_changes":[1.5775864E2,4.9332054E1,2.4748062E1,5.3116196E1,1.09012375E1,1.8125992E1,5.0112915E0,8.132553E1,6.7766205E1,8.383507E0,2.4813004E0,1.0117947E1,1.1976301E1,4.6945496E0,6.493032E0,6.2047485E1,3.3381416E1,6.459516E1,2.4356224E1,8.462933E0,3.5736692E0,2.888111E0,4.761963E-1,1.3091984E0,6.6211166E0,1.0503126E1,2.7187061E0,3.4825363E0,3.8249624E-1,1.1686735E0,1.3421267E0,5.613907E0,1.6736275E1,2.206309E1,4.369072E1,1.50306015E1,3.000751E1,2.1199944E1,8.879486E0,6.656512E0,1.2143944E1,2.1228802E0,3.2356598E0,4.4783306E0,1.2166824E0,8.298504E-2,4.2922497E-1,1.2930605E0,9.2578036E-1,3.8190079E0,3.669827E0,8.592506E0,4.8390985E0,2.1346817E0,1.1224865E0,5.0065365E0,2.810135E0,2.9577005E-1,0E0,1.0835171E0,1.0798675E0,1.1736215E0,0E0,0E0,0E0,0E0,0E0,0E0,0E0,0E0,0E0,0E0,0E0,0E0,0E0,0E0,0E0,0E0,0E0,0E0,0E0,0E0,0E0,0E0,0E0,0E0,0E0,0E0,0E0,0E0,0E0,0E0,0E0,0E0,0E0,0E0,0E0,0E0,0E0,0E0,0E0,0E0,0E0,0E0,0E0,0E0,0E0,0E0,0E0,0E0,0E0,0E0,0E0,0E0,0E0,0E0,0E0,0E0,0E0,0E0,0E0,0E0,0E0],"parents":[2147483647,0,0,1,1,2,2,3,3,4,4,5,5,6,6,7,7,8,8,9,9,10,10,11,11,12,12,13,13,14,14,15,15,16,16,17,17,18,18,19,19,20,20,21,21,22,22,23,23,24,24,25,25,26,26,27,27,28,28,29,29,30,30,31,31,32,32,33,33,34,34,35,35,36,36,37,37,38,38,39,39,40,40,41,41,42,42,43,43,44,44,45,45,46,46,47,47,48,48,49,49,50,50,51,51,52,52,53,53,54,54,55,55,56,56,57,57,59,59,60,60,61,61],"right_children":[2,4,6,8,10,12,14,16,18,20,22,24,26,28,30,32,34,36,38,40,42,44,46,48,50,52,54,56,58,60,62,64,66,68,70,72,74,76,78,80,82,84,86,88,90,92,94,96,98,100,102,104,106,108,110,112,114,116,-1,118,120,122,-1,-1,-1,-1,-1,-1,-1,-1,-1,-1,-1,-1,-1,-1,-1,-1,-1,-1,-1,-1,-1,-1,-1,-1,-1,-1,-1,-1,-1,-1,-1,-1,-1,-1,-1,-1,-1,-1,-1,-1,-1,-1,-1,-1,-1,-1,-1,-1,-1,-1,-1,-1,-1,-1,-1,-1,-1,-1,-1,-1,-1],"split_conditions":[5.1228E0,3.1328905E0,6.9343E0,3.451E1,-1.1778E2,2.3372092E0,-1.1773E2,-1.1836E2,-1.2162E2,-1.1816E2,-1.1689E2,1.3E1,5.2E1,3.816E1,3.355E1,3.416E1,-1.1757E2,3.761E1,-1.1985E2,-1.2149E2,4.014688E0,3.392E1,3.278E1,1.3356165E0,3.781E1,-1.1724E2,3.774E1,1.017094E0,1.1072088E0,-1.1712E2,2.7E1,4.828877E0,-1.1937E2,3.376E1,3.388E1,-1.2214E2,-1.2239E2,3.615E1,3.3182E0,3.79E1,3.513E1,5.7588534E0,3.1397E0,3.276E1,-1.1749E2,1.1966463E0,9.0967745E-1,1.243E3,1E1,6.35E2,-1.2246E2,5.5914397E0,3.366E1,9.714286E-1,6.399267E0,8.4411E0,3.768E1,2.4919918E0,3.725585E-2,7.3518E0,1.4E1,9.281E0,-1.4237E-1,1.1374381E-1,1.7267862E-1,1.01232775E-1,6.4787944E-3,6.340272E-2,9.060045E-3,-5.5302895E-4,-7.6257534E-2,1.18010715E-1,4.3988764E-2,1.4867809E-2,-2.8578427E-2,3.4255166E-2,-3.2431234E-2,-5.2439656E-2,-9.945623E-2,4.544289E-3,-3.6963668E-2,-1.9749442E-2,-4.813812E-2,-1.042359E-4,3.1982083E-2,2.0167015E-3,-3.7427124E-2,-4.7745977E-2,-4.7184774E-3,-3.5948582E-2,-6.08316E-2,-3.23091E-2,-0E0,-0E0,-8.11933E-2,-5.6749504E-2,4.9251383E-3,1.2150543E-1,-2.1500532E-2,5.1910162E-2,1.0761878E-1,7.797973E-2,-2.6735408E-2,-1.0842347E-2,2.5225477E-2,-1.1423754E-2,-9.033086E-2,2.3892974E-2,1.506676E-1,-5.091536E-3,7.1737505E-2,3.2472704E-2,7.519727E-2,8.3449714E-2,4.4284277E-2,-0E0,-4.439205E-2,1.5184757E-1,6.3199975E-2,7.426938E-2,-8.267009E-3,-2.0595692E-2,4.9816296E-2],"split_indices":[0,5,0,6,7,5,7,7,7,7,7,1,1,6,6,6,7,6,7,7,5,6,6,3,6,7,6,3,3,7,1,2,7,6,6,7,7,6,0,6,6,2,0,6,7,3,3,4,1,4,7,2,6,3,2,0,6,5,0,0,1,0,0,0,0,0,0,0,0,0,0,0,0,0,0,0,0,0,0,0,0,0,0,0,0,0,0,0,0,0,0,0,0,0,0,0,0,0,0,0,0,0,0,0,0,0,0,0,0,0,0,0,0,0,0,0,0,0,0,0,0,0,0],"split_type":[0,0,0,0,0,0,0,0,0,0,0,0,0,0,0,0,0,0,0,0,0,0,0,0,0,0,0,0,0,0,0,0,0,0,0,0,0,0,0,0,0,0,0,0,0,0,0,0,0,0,0,0,0,0,0,0,0,0,0,0,0,0,0,0,0,0,0,0,0,0,0,0,0,0,0,0,0,0,0,0,0,0,0,0,0,0,0,0,0,0,0,0,0,0,0,0,0,0,0,0,0,0,0,0,0,0,0,0,0,0,0,0,0,0,0,0,0,0,0,0,0,0,0],"sum_hessian":[1.6512E4,1.3189E4,3.323E3,8.881E3,4.308E3,2.316E3,1.007E3,3.982E3,4.899E3,3.548E3,7.6E2,3.1E2,2.006E3,8.8E2,1.27E2,7.33E2,3.249E3,2.701E3,2.198E3,2.746E3,8.02E2,6.68E2,9.2E1,4.4E1,2.66E2,1.947E3,5.9E1,8.59E2,2.1E1,6.5E1,6.2E1,3.11E2,4.22E2,1.948E3,1.301E3,5.91E2,2.11E3,1.543E3,6.55E2,6.34E2,2.112E3,5.29E2,2.73E2,3.26E2,3.42E2,1.2E1,8E1,4E1,4E0,2.22E2,4.4E1,1.785E3,1.62E2,3.7E1,2.2E1,3.81E2,4.78E2,1.9E1,2E0,4.6E1,1.9E1,6E1,2E0,2.27E2,8.4E1,7.4E1,3.48E2,2.88E2,1.66E3,9.63E2,3.38E2,1.13E2,4.78E2,9.34E2,1.176E3,1.75E2,1.368E3,4.6E2,1.95E2,4.61E2,1.73E2,1.299E3,8.13E2,4.51E2,7.8E1,1.13E2,1.6E2,1.71E2,1.55E2,1.23E2,2.19E2,1.1E1,1E0,2E0,7.8E1,2E1,2E1,3E0,1E0,6.5E1,1.57E2,1.7E1,2.7E1,2.49E2,1.536E3,1.3E2,3.2E1,7E0,3E1,8E0,1.4E1,2.06E2,1.75E2,3.94E2,8.4E1,7E0,1.2E1,7E0,3.9E1,7E0,1.2E1,5.2E1,8E0],"tree_param":{"num_deleted":"0","num_feature":"8","num_nodes":"123","size_leaf_vector":"1"}},{"base_weights":[4.267146E-4,-7.066632E-2,9.584597E-2,-2.762257E-2,-1.1361959E-1,5.7253905E-2,2.2873968E-1,4.3524124E-2,-7.8760155E-2,-1.3593616E-1,-4.798166E-2,-1.974797E-2,1.2104329E-1,1.2541734E-1,2.8615654E-1,2.0096664E-1,-8.271375E-2,-3.531826E-2,-2.4809283E-1,5.4013632E-2,-1.4610015E-1,8.598615E-1,-5.5661716E-2,7.376031E-3,-1.803452E-1,1.6521017E-1,-1.9950837E-2,-6.742526E-2,1.6296157E-1,3.2764235E-1,1.3989216E-1,-8.4705937E-1,2.166066E-1,-6.2362283E-1,-5.9283122E-2,2.2779089E-1,-8.1154175E-2,-3.148265E-1,-8.94507E-2,-3.524881E-1,1.1856381E-1,-1.2862855E-1,-2.2182225E-1,-0E0,1.4958968E0,2.1032177E-1,-6.772371E-2,4.0692646E-2,-1.8016754E-1,-8.892647E-2,-3.4290674E-1,3.0600518E-2,2.1893363E-1,-7.454455E-2,5.0857693E-2,-1.18206784E-1,3.8151845E-1,1.8987986E-1,-7.513525E-2,3.7159875E-1,1.6102068E-1,-4.766583E-2,2.2923364E-1,-1.688465E-1,-0E0,3.460917E-2,1.385646E-1,-1.3400465E-1,1.0349969E-2,1.0634453E-2,-3.2102633E-2,2.7229235E-2,1.02010906E-1,-2.1762494E-2,2.464527E-2,-8.987231E-2,-4.6382673E-2,1.8524937E-1,-1.9860001E-2,2.798772E-3,-8.089041E-2,5.743809E-2,-1.8717576E-2,1.4086715E-2,-2.598775E-2,-4.2793877E-2,4.2133115E-2,-2.3413548E-2,2.7586536E-2,-0E0,3.217685E-1,6.9769467E-3,1.6144328E-1,-4.3066735E-3,-3.1526223E-2,2.7441185E-2,-2.7781988E-3,-3.677905E-2,3.5144597E-2,-2.3616226E-2,9.9829204E-2,-1.208726E-1,-4.627046E-2,4.047775E-2,-7.0494995E-3,1.0423502E-1,3.578389E-2,-6.872939E-3,-4.6672393E-2,3.7708648E-3,1.402522E-1,-5.438807E-2,-2.898082E-3,-0E0,8.23987E-2,7.107026E-2,2.4379745E-2,4.5217287E-2,-3.3989202E-2,7.6934695E-2,3.4719687E-2,8.651067E-2,1.4861246E-5,-2.7400348E-2,9.5188454E-2,2.6684167E-2,7.048645E-2],"categories":[],"categories_nodes":[],"categories_segments":[],"categories_sizes":[],"default_left":[0,0,0,0,0,0,0,0,0,0,0,0,0,0,0,0,0,0,0,0,0,0,0,0,0,0,0,0,0,0,0,0,0,0,0,0,0,0,0,0,0,0,0,0,0,0,0,0,0,0,0,0,0,0,0,0,0,0,0,0,0,0,0,0,0,0,0,0,0,0,0,0,0,0,0,0,0,0,0,0,0,0,0,0,0,0,0,0,0,0,0,0,0,0,0,0,0,0,0,0,0,0,0,0,0,0,0,0,0,0,0,0,0,0,0,0,0,0,0,0,0,0,0,0,0,0,0],"id":11,"left_children":[1,3,5,7,9,11,13,15,17,19,21,23,25,27,29,31,33,35,37,39,41,43,45,47,49,51,53,55,57,59,61,63,65,67,69,71,73,75,77,79,81,83,85,87,89,91,93,95,97,99,101,103,105,107,109,111,113,115,117,119,121,123,125,-1,-1,-1,-1,-1,-1,-1,-1,-1,-1,-1,-1,-1,-1,-1,-1,-1,-1,-1,-1,-1,-1,-1,-1,-1,-1,-1,-1,-1,-1,-1,-1,-1,-1,-1,-1,-1,-1,-1,-1,-1,-1,-1,-1,-1,-1,-1,-1,-1,-1,-1,-1,-1,-1,-1,-1,-1,-1,-1,-1,-1,-1,-1,-1],"loss_changes":[1.1203116E2,1.7436375E1,3.6053947E1,1.7227537E1,6.855789E0,2.690175E1,9.220154E0,3.9325287E1,2.0158798E1,6.8474426E0,8.14116E0,1.0850336E1,1.8699852E1,4.1691465E0,5.95372E0,1.43377495E1,1.36035E1,2.6439304E1,5.7637787E0,4.607777E0,4.277504E0,5.659061E0,3.7967367E0,1.3179323E1,5.1614714E0,1.6402313E1,2.7670097E0,2.0268388E0,3.1221333E0,5.5322113E0,3.8926487E0,1.0619106E0,1.1697193E1,3.8275013E0,1.4689823E1,8.106075E0,1.5859648E1,3.8072586E0,3.5315075E0,9.891293E-1,6.922511E0,8.38773E0,4.127615E0,1.0327636E-1,2.1232939E0,5.5630374E0,5.2812123E0,1.1226501E1,2.753726E0,6.0718174E0,3.1504421E0,8.841357E0,1.2038544E1,2.6013122E0,6.3777337E0,1.4361945E0,3.3021736E-1,4.595826E0,1.7567713E0,5.652519E0,8.367937E0,4.239652E0,1.795948E0,0E0,0E0,0E0,0E0,0E0,0E0,0E0,0E0,0E0,0E0,0E0,0E0,0E0,0E0,0E0,0E0,0E0,0E0,0E0,0E0,0E0,0E0,0E0,0E0,0E0,0E0,0E0,0E0,0E0,0E0,0E0,0E0,0E0,0E0,0E0,0E0,0E0,0E0,0E0,0E0,0E0,0E0,0E0,0E0,0E0,0E0,0E0,0E0,0E0,0E0,0E0,0E0,0E0,0E0,0E0,0E0,0E0,0E0,0E0,0E0,0E0,0E0,0E0,0E0],"parents":[2147483647,0,0,1,1,2,2,3,3,4,4,5,5,6,6,7,7,8,8,9,9,10,10,11,11,12,12,13,13,14,14,15,15,16,16,17,17,18,18,19,19,20,20,21,21,22,22,23,23,24,24,25,25,26,26,27,27,28,28,29,29,30,30,31,31,32,32,33,33,34,34,35,35,36,36,37,37,38,38,39,39,40,40,41,41,42,42,43,43,44,44,45,45,46,46,47,47,48,48,49,49,50,50,51,51,52,52,53,53,54,54,55,55,56,56,57,57,58,58,59,59,60,60,61,61,62,62],"right_children":[2,4,6,8,10,12,14,16,18,20,22,24,26,28,30,32,34,36,38,40,42,44,46,48,50,52,54,56,58,60,62,64,66,68,70,72,74,76,78,80,82,84,86,88,90,92,94,96,98,100,102,104,106,108,110,112,114,116,118,120,122,124,126,-1,-1,-1,-1,-1,-1,-1,-1,-1,-1,-1,-1,-1,-1,-1,-1,-1,-1,-1,-1,-1,-1,-1,-1,-1,-1,-1,-1,-1,-1,-1,-1,-1,-1,-1,-1,-1,-1,-1,-1,-1,-1,-1,-1,-1,-1,-1,-1,-1,-1,-1,-1,-1,-1,-1,-1,-1,-1,-1,-1,-1,-1,-1,-1],"split_conditions":[3.8393E0,2.805492E0,6.2299E0,3.461E1,1.939E3,1.0256411E0,1.9E1,-1.1811E2,-1.2059E2,3.16E2,1.0353E0,-1.1775E2,3.1413794E0,6.399267E0,3.0088692E0,9.0234375E-1,1.5076923E0,3.756E1,3.732E1,8.7945205E-1,3.774E1,3.7884614E0,-1.2224E2,3.796E1,3.367E1,1.7E1,6.2058825E0,1.0838324E0,3.79E1,3.761E1,7.068536E0,6.72E2,5.375E0,3.225E0,3.369E1,1.1408163E0,5.2E1,2.3019416E0,4.1E1,2.1E1,1.1199294E0,-1.2135E2,4.5507746E0,4E1,6E0,3.980695E0,3.426E1,-1.2135E2,-1.2118E2,3.9E1,2.7513711E0,3.369E1,1.8161291E0,-1.1778E2,4.6086955E0,7.17E2,3E0,-1.2182E2,-1.2217E2,-1.1814E2,-1.2242E2,1.0667735E0,2.9E1,-1.688465E-1,-0E0,3.460917E-2,1.385646E-1,-1.3400465E-1,1.0349969E-2,1.0634453E-2,-3.2102633E-2,2.7229235E-2,1.02010906E-1,-2.1762494E-2,2.464527E-2,-8.987231E-2,-4.6382673E-2,1.8524937E-1,-1.9860001E-2,2.798772E-3,-8.089041E-2,5.743809E-2,-1.8717576E-2,1.4086715E-2,-2.598775E-2,-4.2793877E-2,4.2133115E-2,-2.3413548E-2,2.7586536E-2,-0E0,3.217685E-1,6.9769467E-3,1.6144328E-1,-4.3066735E-3,-3.1526223E-2,2.7441185E-2,-2.7781988E-3,-3.677905E-2,3.5144597E-2,-2.3616226E-2,9.9829204E-2,-1.208726E-1,-4.627046E-2,4.047775E-2,-7.0494995E-3,1.0423502E-1,3.578389E-2,-6.872939E-3,-4.6672393E-2,3.7708648E-3,1.402522E-1,-5.438807E-2,-2.898082E-3,-0E0,8.23987E-2,7.107026E-2,2.4379745E-2,4.5217287E-2,-3.3989202E-2,7.6934695E-2,3.4719687E-2,8.651067E-2,1.4861246E-5,-2.7400348E-2,9.5188454E-2,2.6684167E-2,7.048645E-2],"split_indices":[0,5,0,6,4,3,1,7,7,4,0,7,5,2,5,3,5,6,6,3,6,5,7,6,6,1,2,3,6,6,2,4,2,0,6,3,1,5,4,1,3,7,5,1,1,5,6,7,7,1,5,6,5,7,5,4,1,7,7,7,7,3,1,0,0,0,0,0,0,0,0,0,0,0,0,0,0,0,0,0,0,0,0,0,0,0,0,0,0,0,0,0,0,0,0,0,0,0,0,0,0,0,0,0,0,0,0,0,0,0,0,0,0,0,0,0,0,0,0,0,0,0,0,0,0,0,0],"split_type":[0,0,0,0,0,0,0,0,0,0,0,0,0,0,0,0,0,0,0,0,0,0,0,0,0,0,0,0,0,0,0,0,0,0,0,0,0,0,0,0,0,0,0,0,0,0,0,0,0,0,0,0,0,0,0,0,0,0,0,0,0,0,0,0,0,0,0,0,0,0,0,0,0,0,0,0,0,0,0,0,0,0,0,0,0,0,0,0,0,0,0,0,0,0,0,0,0,0,0,0,0,0,0,0,0,0,0,0,0,0,0,0,0,0,0,0,0,0,0,0,0,0,0,0,0,0,0],"sum_hessian":[1.6512E4,9.46E3,7.052E3,4.73E3,4.73E3,5.468E3,1.584E3,1.975E3,2.755E3,3.525E3,1.205E3,2.475E3,2.993E3,5.69E2,1.015E3,8.8E2,1.095E3,2.195E3,5.6E2,1.77E2,3.348E3,9E0,1.196E3,2.116E3,3.59E2,2.281E3,7.12E2,9.1E1,4.78E2,7.88E2,2.27E2,1.2E1,8.68E2,4.4E1,1.051E3,3.24E2,1.871E3,3.92E2,1.68E2,2.3E1,1.54E2,2.726E3,6.22E2,4E0,5E0,5E1,1.146E3,1.799E3,3.17E2,2.32E2,1.27E2,6.53E2,1.628E3,4.05E2,3.07E2,8.3E1,8E0,4.31E2,4.7E1,6.21E2,1.67E2,7.2E1,1.55E2,1.1E1,1E0,8.31E2,3.7E1,3.8E1,6E0,5.24E2,5.27E2,2.65E2,5.9E1,1.588E3,2.83E2,9.3E1,2.99E2,2E0,1.66E2,4E0,1.9E1,8.2E1,7.2E1,1.81E2,2.545E3,6.04E2,1.8E1,3E0,1E0,1E0,4E0,4.1E1,9E0,8.14E2,3.32E2,6.06E2,1.193E3,3E2,1.7E1,2.19E2,1.3E1,2.5E1,1.02E2,1.74E2,4.79E2,9E1,1.538E3,3.4E2,6.5E1,2.96E2,1.1E1,2.8E1,5.5E1,1E0,7E0,9E1,3.41E2,1.1E1,3.6E1,4.77E2,1.44E2,5.5E1,1.12E2,6.2E1,1E1,1.05E2,5E1],"tree_param":{"num_deleted":"0","num_feature":"8","num_nodes":"127","size_leaf_vector":"1"}},{"base_weights":[4.345673E-4,-4.12585E-2,1.1028373E-1,-1.0051781E-2,-9.98722E-2,2.303378E-1,8.012574E-2,2.3588201E-2,-1.05613485E-1,-8.1328996E-2,-1.8599272E-1,4.439504E-1,1.0577566E-1,1.4182723E-1,-7.9257056E-2,3.3695728E-1,7.5740255E-3,-7.14998E-2,-2.1460985E-1,-4.428918E-2,-1.3261329E-1,-1.6562447E-1,-3.2262725E-1,4.6319544E-1,-1.3171776E-1,2.9035246E-1,-4.6298347E-2,3.154739E-1,6.127845E-2,1.1719037E-2,-8.244917E-1,1.01727106E-1,5.595491E-1,3.0767346E-2,-1.5388922E-1,-3.44641E-2,-1.515328E-1,-6.1889112E-2,-2.3326123E-1,-9.936073E-2,4.2451154E-2,-4.6159886E-2,-1.910714E-1,-1.18618E-1,-2.4128714E-1,-2.402045E-1,-4.258167E-1,-0E0,4.9065804E-1,1.0382445E-1,-2.813309E-1,3.5066158E-1,7.110365E-2,-9.7219296E-2,3.2068753E-1,4.7682133E-1,1.5068959E-1,-3.7670474E-2,1.6015318E-1,8.426053E-2,-1.6406475E-1,-4.4430363E-1,-9.836802E-1,-1.7703189E-2,4.1282427E-2,2.2649812E-2,1.3011852E-1,1.8449843E-2,-1.18937325E-2,-2.2798643E-2,-7.630191E-2,-7.807726E-3,5.720537E-2,3.321452E-3,-3.3732556E-2,1.929383E-2,-1.967898E-2,-3.4382675E-2,-4.9340554E-2,6.6399868E-3,-2.9163914E-2,1.9027222E-2,-1.5244234E-2,-1.7917408E-2,1.4455775E-2,-3.740682E-2,3.869402E-2,-3.616005E-2,-1.2386649E-2,-3.277282E-2,-5.3381424E-2,-0E0,-4.759263E-2,-7.947413E-2,-0E0,-5.2492198E-2,9.755907E-2,5.0019704E-2,9.697598E-2,-0E0,3.8631693E-2,-0E0,-6.0053013E-2,3.3404008E-2,8.428701E-2,5.6108918E-2,-4.1047987E-3,-4.116454E-2,-2.132255E-3,2.4268199E-2,8.164144E-2,6.856835E-2,1.0538027E-1,1.3351005E-1,1.015061E-2,-1.3443652E-2,3.3628583E-2,3.6512244E-2,-8.299171E-3,2.204892E-2,-3.4027614E-2,-9.255643E-3,-6.349043E-2,1.4585901E-2,-9.540887E-2,-1.440727E-1,-2.1640964E-1],"categories":[],"categories_nodes":[],"categories_segments":[],"categories_sizes":[],"default_left":[0,0,0,0,0,0,0,0,0,0,0,0,0,0,0,0,0,0,0,0,0,0,0,0,0,0,0,0,0,0,0,0,0,0,0,0,0,0,0,0,0,0,0,0,0,0,0,0,0,0,0,0,0,0,0,0,0,0,0,0,0,0,0,0,0,0,0,0,0,0,0,0,0,0,0,0,0,0,0,0,0,0,0,0,0,0,0,0,0,0,0,0,0,0,0,0,0,0,0,0,0,0,0,0,0,0,0,0,0,0,0,0,0,0,0,0,0,0,0,0,0,0,0,0,0,0,0],"id":12,"left_children":[1,3,5,7,9,11,13,15,17,19,21,23,25,27,29,31,33,35,37,39,41,43,45,47,49,51,53,55,57,59,61,63,65,67,69,71,73,75,77,79,81,83,85,87,89,91,93,95,97,99,101,103,105,107,109,111,113,115,117,119,121,123,125,-1,-1,-1,-1,-1,-1,-1,-1,-1,-1,-1,-1,-1,-1,-1,-1,-1,-1,-1,-1,-1,-1,-1,-1,-1,-1,-1,-1,-1,-1,-1,-1,-1,-1,-1,-1,-1,-1,-1,-1,-1,-1,-1,-1,-1,-1,-1,-1,-1,-1,-1,-1,-1,-1,-1,-1,-1,-1,-1,-1,-1,-1,-1,-1],"loss_changes":[7.565685E1,2.184873E1,1.6328003E1,2.5154665E1,6.521721E0,2.3965271E1,3.5796272E1,2.8863632E1,7.458082E0,6.4309654E0,1.81324E0,3.8676682E0,1.6290628E1,3.654266E1,6.9042885E1,1.4357094E1,2.0549479E1,4.53769E0,1.253561E0,9.543729E0,7.1352863E0,2.1224537E0,4.537878E-1,4.1473236E0,4.673547E-1,3.284155E0,5.840113E0,2.1771751E1,1.7609493E1,1.1504733E1,5.8391724E0,3.5326366E0,9.466621E0,3.2997795E1,4.915123E0,3.1397762E0,2.9463253E0,4.4845623E-1,5.151043E-1,1.0295763E1,6.130754E0,3.8726993E0,5.34795E0,1.5160885E0,5.610504E-1,2.0661259E-1,2.2999477E-1,3.0291953E0,2.5182037E0,8.469154E-2,1.2858939E-1,3.5760899E0,1.4276894E0,3.0057669E0,6.519413E-1,3.7834244E0,2.2580116E1,7.280107E0,7.742182E0,6.535437E0,5.3702455E0,1.7025771E0,1.5904541E0,0E0,0E0,0E0,0E0,0E0,0E0,0E0,0E0,0E0,0E0,0E0,0E0,0E0,0E0,0E0,0E0,0E0,0E0,0E0,0E0,0E0,0E0,0E0,0E0,0E0,0E0,0E0,0E0,0E0,0E0,0E0,0E0,0E0,0E0,0E0,0E0,0E0,0E0,0E0,0E0,0E0,0E0,0E0,0E0,0E0,0E0,0E0,0E0,0E0,0E0,0E0,0E0,0E0,0E0,0E0,0E0,0E0,0E0,0E0,0E0,0E0,0E0,0E0,0E0],"parents":[2147483647,0,0,1,1,2,2,3,3,4,4,5,5,6,6,7,7,8,8,9,9,10,10,11,11,12,12,13,13,14,14,15,15,16,16,17,17,18,18,19,19,20,20,21,21,22,22,23,23,24,24,25,25,26,26,27,27,28,28,29,29,30,30,31,31,32,32,33,33,34,34,35,35,36,36,37,37,38,38,39,39,40,40,41,41,42,42,43,43,44,44,45,45,46,46,47,47,48,48,49,49,50,50,51,51,52,52,53,53,54,54,55,55,56,56,57,57,58,58,59,59,60,60,61,61,62,62],"right_children":[2,4,6,8,10,12,14,16,18,20,22,24,26,28,30,32,34,36,38,40,42,44,46,48,50,52,54,56,58,60,62,64,66,68,70,72,74,76,78,80,82,84,86,88,90,92,94,96,98,100,102,104,106,108,110,112,114,116,118,120,122,124,126,-1,-1,-1,-1,-1,-1,-1,-1,-1,-1,-1,-1,-1,-1,-1,-1,-1,-1,-1,-1,-1,-1,-1,-1,-1,-1,-1,-1,-1,-1,-1,-1,-1,-1,-1,-1,-1,-1,-1,-1,-1,-1,-1,-1,-1,-1,-1,-1,-1,-1,-1,-1,-1,-1,-1,-1,-1,-1,-1,-1,-1,-1,-1,-1],"split_conditions":[4.6173E0,3.1018634E0,-1.2202E2,3.794E1,-1.178E2,3.761E1,3.461E1,-1.2241E2,3.941E1,3.495E1,-1.1689E2,3.7391305E0,-1.2241E2,-1.1833E2,-1.1996E2,3.777E1,-1.1715E2,3.4E1,1.5E1,3.404E1,-1.2149E2,3.404E1,2.6205E0,3.723E1,1.118E3,3.816E1,7.627685E0,3.415E1,6.335601E0,-1.2154E2,5.0497E0,3.773E1,3.8755245E0,3.451E1,-1.1617E2,1.8793522E1,-1.2244E2,3.976E1,2.5E1,3.389E1,4.0596094E0,3.7884614E0,6.870968E0,3.274E1,-1.174E2,3.271E1,5.632613E0,6.2058825E0,5.40118E0,9.0234375E-1,8.917526E-1,3.776E1,8.55E2,6.173789E0,8.79E2,3.401E1,-1.1927E2,3.411E1,-1.1717E2,3.796E1,2E1,3.468E1,5.7214E0,-1.7703189E-2,4.1282427E-2,2.2649812E-2,1.3011852E-1,1.8449843E-2,-1.18937325E-2,-2.2798643E-2,-7.630191E-2,-7.807726E-3,5.720537E-2,3.321452E-3,-3.3732556E-2,1.929383E-2,-1.967898E-2,-3.4382675E-2,-4.9340554E-2,6.6399868E-3,-2.9163914E-2,1.9027222E-2,-1.5244234E-2,-1.7917408E-2,1.4455775E-2,-3.740682E-2,3.869402E-2,-3.616005E-2,-1.2386649E-2,-3.277282E-2,-5.3381424E-2,-0E0,-4.759263E-2,-7.947413E-2,-0E0,-5.2492198E-2,9.755907E-2,5.0019704E-2,9.697598E-2,-0E0,3.8631693E-2,-0E0,-6.0053013E-2,3.3404008E-2,8.428701E-2,5.6108918E-2,-4.1047987E-3,-4.116454E-2,-2.132255E-3,2.4268199E-2,8.164144E-2,6.856835E-2,1.0538027E-1,1.3351005E-1,1.015061E-2,-1.3443652E-2,3.3628583E-2,3.6512244E-2,-8.299171E-3,2.204892E-2,-3.4027614E-2,-9.255643E-3,-6.349043E-2,1.4585901E-2,-9.540887E-2,-1.440727E-1,-2.1640964E-1],"split_indices":[0,5,7,6,7,6,6,7,6,6,7,5,7,7,7,6,7,1,1,6,7,6,0,6,4,6,2,6,2,7,0,6,2,6,7,2,7,6,1,6,5,5,2,6,7,6,5,2,2,3,3,6,4,2,4,6,7,6,7,6,1,6,0,0,0,0,0,0,0,0,0,0,0,0,0,0,0,0,0,0,0,0,0,0,0,0,0,0,0,0,0,0,0,0,0,0,0,0,0,0,0,0,0,0,0,0,0,0,0,0,0,0,0,0,0,0,0,0,0,0,0,0,0,0,0,0,0],"split_type":[0,0,0,0,0,0,0,0,0,0,0,0,0,0,0,0,0,0,0,0,0,0,0,0,0,0,0,0,0,0,0,0,0,0,0,0,0,0,0,0,0,0,0,0,0,0,0,0,0,0,0,0,0,0,0,0,0,0,0,0,0,0,0,0,0,0,0,0,0,0,0,0,0,0,0,0,0,0,0,0,0,0,0,0,0,0,0,0,0,0,0,0,0,0,0,0,0,0,0,0,0,0,0,0,0,0,0,0,0,0,0,0,0,0,0,0,0,0,0,0,0,0,0,0,0,0,0],"sum_hessian":[1.6512E4,1.1967E4,4.545E3,7.814E3,4.153E3,9.09E2,3.636E3,5.777E3,2.037E3,3.422E3,7.31E2,3.33E2,5.76E2,2.623E3,1.013E3,2.79E2,5.498E3,1.555E3,4.82E2,1.992E3,1.43E3,6.4E2,9.1E1,3.23E2,1E1,2.61E2,3.15E2,8.29E2,1.794E3,9.03E2,1.1E2,1.37E2,1.42E2,4.81E3,6.88E2,1.067E3,4.88E2,5.5E1,4.27E2,1.221E3,7.71E2,5.8E2,8.5E2,3.99E2,2.41E2,5.4E1,3.7E1,1.8E1,3.05E2,3E0,7E0,2.03E2,5.8E1,2.78E2,3.7E1,4.17E2,4.12E2,8.95E2,8.99E2,6.41E2,2.62E2,3.4E1,7.6E1,5.2E1,8.5E1,3.9E1,1.03E2,2.771E3,2.039E3,6.25E2,6.3E1,1.043E3,2.4E1,8.1E1,4.07E2,1E1,4.5E1,2.09E2,2.18E2,3.79E2,8.42E2,5.18E2,2.53E2,4.11E2,1.69E2,8.2E2,3E1,1.49E2,2.5E2,1.18E2,1.23E2,6E0,4.8E1,3.6E1,1E0,1.2E1,6E0,5.5E1,2.5E2,1E0,2E0,1E0,6E0,8.5E1,1.18E2,1.7E1,4.1E1,1.08E2,1.7E2,1.7E1,2E1,2.19E2,1.98E2,5.6E1,3.56E2,7.71E2,1.24E2,7.5E2,1.49E2,5.65E2,7.6E1,1.65E2,9.7E1,4E0,3E1,4.3E1,3.3E1],"tree_param":{"num_deleted":"0","num_feature":"8","num_nodes":"127","size_leaf_vector":"1"}},{"base_weights":[3.2960423E-4,-4.8322108E-2,6.564547E-2,-1.3332558E-1,-3.4444228E-2,9.222155E-2,-3.623465E-2,-1.41325E-1,6.0920393E-1,-1.62441E-2,-1.17997706E-1,1.2508972E-1,2.1200085E-3,-9.969595E-2,5.267609E-2,-9.059857E-2,-2.0017397E-1,1.2200613E0,-0E0,4.517762E-2,-5.766038E-2,-2.1756364E-2,-2.2702622E-1,4.0689152E-1,9.751772E-2,2.1493801E-1,-8.462532E-2,-7.517604E-2,-2.1377373E-1,3.6691774E-2,4.6260676E-1,1.7634213E-1,-1.2157953E-1,2.1697757E-1,-2.0461492E-1,2.6894414E-1,5.317009E-2,7.807604E-2,-1.81707E-1,-2.914505E-2,1.5266229E-1,-2.0636475E-2,-1.649745E-1,1.360021E-1,-1.12185605E-1,-3.0149567E-1,-1.9000255E-1,-3.7447968E-3,4.4359437E-1,1.340587E-1,-5.9471503E-2,1.2530355E-1,4.116782E-1,-1.6471998E-1,6.796602E-3,-1.2804872E-1,-2.7218763E-2,-2.2728068E-1,2.502958E-1,2.4713714E-2,4.186446E-1,9.068401E-1,1.8021847E-1,8.981413E-3,1.3412578E-1,2.1653914E-1,-2.389438E-2,-2.9461553E-2,-5.426813E-2,-0E0,-6.0617805E-2,1.1826941E-1,-1.2193444E-2,2.1246323E-2,7.299918E-2,2.8883386E-2,-1.1655895E-2,-3.3319116E-2,-2.1489705E-3,-7.003491E-2,3.816738E-2,-1.3924553E-2,-5.1595334E-2,-7.118996E-2,-1.4542627E-2,6.0530186E-2,-3.6137853E-2,-4.9654886E-2,4.704776E-2,6.9062444E-3,8.578637E-2,4.983142E-2,9.947882E-3,1.8040858E-2,-1.0404986E-1,-1.3434412E-1,2.6453206E-2,3.4090035E-2,1.07779585E-1,-7.1033485E-2,-2.3345936E-2,-1.808429E-2,1.0173499E-2,-1.3233032E-2,-3.435655E-2,2.428803E-3,-3.1332713E-2,-6.1630495E-2,-2.8818352E-2,-0E0,5.9063815E-2,9.13004E-3,-1.962733E-2,1.097288E-1,-4.551326E-2,2.1228236E-1,-5.2553307E-2,4.3811165E-2,-3.3363134E-3],"categories":[],"categories_nodes":[],"categories_segments":[],"categories_sizes":[],"default_left":[0,0,0,0,0,0,0,0,0,0,0,0,0,0,0,0,0,0,0,0,0,0,0,0,0,0,0,0,0,0,0,0,0,0,0,0,0,0,0,0,0,0,0,0,0,0,0,0,0,0,0,0,0,0,0,0,0,0,0,0,0,0,0,0,0,0,0,0,0,0,0,0,0,0,0,0,0,0,0,0,0,0,0,0,0,0,0,0,0,0,0,0,0,0,0,0,0,0,0,0,0,0,0,0,0,0,0,0,0,0,0,0,0,0,0,0,0,0,0],"id":13,"left_children":[1,3,5,7,9,11,13,15,17,19,21,23,25,27,29,31,33,35,37,39,41,43,45,47,49,51,53,55,57,59,61,63,65,-1,67,-1,-1,-1,69,71,73,75,77,79,81,83,85,87,89,91,93,95,97,99,101,103,105,107,109,111,113,115,117,-1,-1,-1,-1,-1,-1,-1,-1,-1,-1,-1,-1,-1,-1,-1,-1,-1,-1,-1,-1,-1,-1,-1,-1,-1,-1,-1,-1,-1,-1,-1,-1,-1,-1,-1,-1,-1,-1,-1,-1,-1,-1,-1,-1,-1,-1,-1,-1,-1,-1,-1,-1,-1,-1,-1,-1],"loss_changes":[5.248192E1,1.1094179E1,1.911935E1,7.751976E0,1.232316E1,1.6526714E1,8.241134E0,3.790186E0,4.9454412E0,1.7016788E1,1.5136286E1,3.1619896E1,2.7749376E1,2.264864E0,3.7626066E0,5.856979E0,3.5538006E0,6.6165733E-1,7.0094466E-1,2.1536863E1,1.5811647E1,1.1040832E1,1.6440735E0,5.648487E0,2.14585E1,7.444216E0,7.8566074E0,1.7286751E0,9.601979E-1,2.496648E0,2.1981702E0,4.8784666E0,8.388361E0,0E0,2.1886635E0,0E0,0E0,0E0,1.18195415E-1,4.1179886E1,9.524054E0,2.339906E1,2.8961525E0,1.0958157E1,2.858223E0,4.268429E0,2.2858524E0,2.1784163E0,3.8686142E0,3.3706966E1,5.78701E1,5.283736E0,5.14353E0,4.4098806E0,2.5977502E0,1.0153618E0,2.2808723E0,8.8699627E-1,5.7502836E-2,1.9234122E0,2.3473089E0,3.045702E0,2.677992E-1,0E0,0E0,0E0,0E0,0E0,0E0,0E0,0E0,0E0,0E0,0E0,0E0,0E0,0E0,0E0,0E0,0E0,0E0,0E0,0E0,0E0,0E0,0E0,0E0,0E0,0E0,0E0,0E0,0E0,0E0,0E0,0E0,0E0,0E0,0E0,0E0,0E0,0E0,0E0,0E0,0E0,0E0,0E0,0E0,0E0,0E0,0E0,0E0,0E0,0E0,0E0,0E0,0E0,0E0,0E0,0E0],"parents":[2147483647,0,0,1,1,2,2,3,3,4,4,5,5,6,6,7,7,8,8,9,9,10,10,11,11,12,12,13,13,14,14,15,15,16,16,17,17,18,18,19,19,20,20,21,21,22,22,23,23,24,24,25,25,26,26,27,27,28,28,29,29,30,30,31,31,32,32,34,34,38,38,39,39,40,40,41,41,42,42,43,43,44,44,45,45,46,46,47,47,48,48,49,49,50,50,51,51,52,52,53,53,54,54,55,55,56,56,57,57,58,58,59,59,60,60,61,61,62,62],"right_children":[2,4,6,8,10,12,14,16,18,20,22,24,26,28,30,32,34,36,38,40,42,44,46,48,50,52,54,56,58,60,62,64,66,-1,68,-1,-1,-1,70,72,74,76,78,80,82,84,86,88,90,92,94,96,98,100,102,104,106,108,110,112,114,116,118,-1,-1,-1,-1,-1,-1,-1,-1,-1,-1,-1,-1,-1,-1,-1,-1,-1,-1,-1,-1,-1,-1,-1,-1,-1,-1,-1,-1,-1,-1,-1,-1,-1,-1,-1,-1,-1,-1,-1,-1,-1,-1,-1,-1,-1,-1,-1,-1,-1,-1,-1,-1,-1,-1,-1,-1],"split_conditions":[3.8393E0,9.928741E-1,3.2425876E0,5.942943E0,-1.1775E2,3.761E1,6.2246375E0,3.535E1,4.23E2,3.461E1,3.369E1,-1.2203E2,-1.2241E2,4.1985292E0,3.9E1,-1.1843E2,3E0,3.79E1,6.010101E0,3.405E1,-1.2059E2,-1.1714E2,2.5895522E0,3.723E1,3.461E1,4.8E1,6.335601E0,1.308E3,1.2943925E0,1.3356165E0,5.9399E0,4.1E1,4.1E1,2.1697757E-1,-1.2101E2,2.6894414E-1,5.317009E-2,7.807604E-2,6.3003E0,-1.1841E2,5.0689654E0,3.761E1,1.4157304E0,1.6103723E0,-1.1617E2,6.0606794E0,1.38E2,9.18E2,2.0055096E0,-1.183E2,-1.1996E2,4.125E0,3.777E1,4.76E2,7.67E2,3.5E1,-1.1786E2,1.227E3,4.7328E0,-1.1744E2,1.9E1,9.7757845E0,1.2151898E0,8.981413E-3,1.3412578E-1,2.1653914E-1,-2.389438E-2,-2.9461553E-2,-5.426813E-2,-0E0,-6.0617805E-2,1.1826941E-1,-1.2193444E-2,2.1246323E-2,7.299918E-2,2.8883386E-2,-1.1655895E-2,-3.3319116E-2,-2.1489705E-3,-7.003491E-2,3.816738E-2,-1.3924553E-2,-5.1595334E-2,-7.118996E-2,-1.4542627E-2,6.0530186E-2,-3.6137853E-2,-4.9654886E-2,4.704776E-2,6.9062444E-3,8.578637E-2,4.983142E-2,9.947882E-3,1.8040858E-2,-1.0404986E-1,-1.3434412E-1,2.6453206E-2,3.4090035E-2,1.07779585E-1,-7.1033485E-2,-2.3345936E-2,-1.808429E-2,1.0173499E-2,-1.3233032E-2,-3.435655E-2,2.428803E-3,-3.1332713E-2,-6.1630495E-2,-2.8818352E-2,-0E0,5.9063815E-2,9.13004E-3,-1.962733E-2,1.097288E-1,-4.551326E-2,2.1228236E-1,-5.2553307E-2,4.3811165E-2,-3.3363134E-3],"split_indices":[0,3,5,2,7,6,2,6,4,6,6,7,7,5,1,7,1,6,2,6,7,7,5,6,6,1,2,4,3,3,0,1,4,0,7,0,0,0,2,7,2,6,3,5,7,2,4,4,5,7,7,2,6,4,4,1,7,4,0,7,1,2,3,0,0,0,0,0,0,0,0,0,0,0,0,0,0,0,0,0,0,0,0,0,0,0,0,0,0,0,0,0,0,0,0,0,0,0,0,0,0,0,0,0,0,0,0,0,0,0,0,0,0,0,0,0,0,0,0],"split_type":[0,0,0,0,0,0,0,0,0,0,0,0,0,0,0,0,0,0,0,0,0,0,0,0,0,0,0,0,0,0,0,0,0,0,0,0,0,0,0,0,0,0,0,0,0,0,0,0,0,0,0,0,0,0,0,0,0,0,0,0,0,0,0,0,0,0,0,0,0,0,0,0,0,0,0,0,0,0,0,0,0,0,0,0,0,0,0,0,0,0,0,0,0,0,0,0,0,0,0,0,0,0,0,0,0,0,0,0,0,0,0,0,0,0,0,0,0,0,0],"sum_hessian":[1.6512E4,9.46E3,7.052E3,1.323E3,8.137E3,5.596E3,1.456E3,1.31E3,1.3E1,6.686E3,1.451E3,4.097E3,1.499E3,8.52E2,6.04E2,7.08E2,6.02E2,6E0,7E0,2.689E3,3.997E3,7.73E2,6.78E2,3.63E2,3.734E3,4.35E2,1.064E3,7.05E2,1.47E2,5.83E2,2.1E1,7.2E1,6.36E2,1E0,6.01E2,4E0,2E0,2E0,5E0,1.588E3,1.101E3,2.975E3,1.022E3,2.8E2,4.93E2,2.2E2,4.58E2,2.9E1,3.34E2,3.031E3,7.03E2,3.01E2,1.34E2,5.69E2,4.95E2,3.31E2,3.74E2,1.44E2,3E0,5.67E2,1.6E1,7E0,1.4E1,6E1,1.2E1,4E0,6.32E2,4.21E2,1.8E2,3E0,2E0,8.3E1,1.505E3,9.67E2,1.34E2,5.79E2,2.396E3,9.07E2,1.15E2,3.4E1,2.46E2,4.12E2,8.1E1,1.54E2,6.6E1,7E0,4.51E2,1.5E1,1.4E1,2.4E1,3.1E2,1.087E3,1.944E3,5.37E2,1.66E2,6E0,2.95E2,6.2E1,7.2E1,7.5E1,4.94E2,1.54E2,3.41E2,1.79E2,1.52E2,2.91E2,8.3E1,5.1E1,9.3E1,1E0,2E0,4.78E2,8.9E1,1.3E1,3E0,6E0,1E0,1.2E1,2E0],"tree_param":{"num_deleted":"0","num_feature":"8","num_nodes":"119","size_leaf_vector":"1"}},{"base_weights":[3.0915067E-4,-3.9505765E-2,5.37711E-2,-1.1535454E-1,-2.7431203E-2,2.195875E-2,1.2561396E-1,-1.2141405E-1,3.912174E-1,1.365776E-3,-6.438086E-2,-1.313374E-2,9.6561E-2,3.199261E-1,9.528331E-2,-3.162389E-2,-1.382533E-1,-1.6030003E-1,9.532318E-1,-1.06580565E-2,1.4069629E-1,-5.113108E-2,-1.3215937E-1,8.448135E-3,-1.5411101E-1,5.510364E-2,2.4363677E-1,6.649157E-1,2.4781182E-1,1.1981416E-1,-2.710233E-1,-4.16313E-1,4.730333E-3,1.5975656E-2,-1.5447275E-1,-0E0,-5.3128026E-2,1.2387173E0,-0E0,4.569225E-2,-4.0285606E-2,3.885386E-1,7.361916E-2,5.730116E-1,-5.4534085E-2,-6.749285E-2,-1.8253343E-1,1.2724814E-1,-1.452883E-2,-7.586155E-2,-2.7787116E-1,1.7041455E-1,8.312817E-3,2.761039E-1,4.072136E-2,-0E0,6.8112487E-1,2.76909E-1,-4.2735898E-1,1.9149014E-1,4.7362562E-2,-1.9166829E-1,-5.3130317E-1,-1.0838831E-1,-0E0,3.0800106E-2,-1.8929131E-2,1.1807091E-1,-1.0026011E-2,-2.992856E-2,1.244387E-2,1.1940066E-2,-3.1385163E-3,-0E0,2.6548594E-1,-0E0,1.5113222E-2,8.650303E-2,1.2453059E-3,-5.580675E-3,-4.943792E-2,-2.1763217E-2,1.000413E-1,-6.595128E-2,